-0.006689, 0.675422, -0.221466, 0.050238, -0.098181, 0.724273, 0.062563, -0.016956, 0.118165, 0.095207, 0.243463, 0.380332, 0.424116, 0.806255, 0.327977, -0.207770, 0.795645, 0.833825, -0.873978, -0.637351, 0.121511, 0.364745, 0.031849, 0.096724, 0.859925, -0.024685, 0.789679, -0.897596, 0.132105, 0.065832, 0.841510, 0.401389, 0.120859, -0.471785, 0.526874, 0.462696, -0.489669, 0.300735, 1.154973, 0.350441, -0.158783, 0.437591, -0.109623, 0.212698, 0.239450, -0.182840, 0.411468, 0.418822, 0.432611, 0.007803, 0.148071, 0.313754, 0.559195, -0.488703, 0.941369, -0.210137, -0.010908, -0.791902, 0.506717, 0.408431, -0.183062, 0.125393, 0.770855, -0.611642, -0.615871, 0.372633, 0.817924, -1.351357, 0.184651, 0.192478, 0.840523, -0.091210, -0.070006, 0.634623, -0.597187, 0.657083, -0.976617, -0.158832, 0.028339, -0.428803, 0.081998, -0.176032, 0.782658, 0.500490, -0.224503, 0.131621, -0.402293, 0.078778, -0.054556, -0.277734, 0.318880, 0.219337, -0.049137, 0.332632, -0.113993, 0.170208, 1.245439, -0.418422, -0.086240, 0.540358, 0.396633, 0.504678, -0.870961, 0.333000, 0.207087, -0.288346, 0.650380, 0.950357, 0.065130, 0.541471, -0.712859, -0.064383, 0.736548, 0.757448, 0.278697, -0.009564, 0.849758, 0.308780, -0.154468, 0.352901, 0.273605, 0.505945, 0.167292, 0.223260, 0.271922, 0.173471, -0.351111, 0.838002, -0.832489, 0.187508, -0.958799, -0.464983, -0.045714, -0.662379, 1.076179, 0.051402, -0.306504, 0.492202, -0.172926, 0.229138, 0.962218, -0.093265, 0.210837, 0.460186, 0.243196, -0.187601, -0.060652, 0.660684, 0.235783, 0.280277, -0.071440, -0.480996, 0.962912, -0.215848, -0.266760, 0.198924, -0.960329, 0.201661, -0.520498, -0.802981, 0.015930, -0.425142, -0.140357, 0.135737, 0.407434, -0.898664, -0.539151, -0.221963, 0.364706, 0.260809, 0.283734, 0.068338, -0.443417, 0.013893, 0.627963, -0.708139, -0.615233, -0.044346, -0.161535, -0.297487, -0.693170, -1.181274, 0.572832, 0.006784, 0.320414, -1.051612, 0.701253, -0.549485, 0.373690, 0.062222, 0.092410, 0.548836, -0.896186, -0.536591, 0.314707, 0.304242, 0.390140, 0.781751, 1.194901, 0.202195, 0.208134, -0.310385, -0.322923, 1.211630, -0.019947, 1.091739, 1.058549, -0.462831, 1.366496, -0.224406, 0.123361, 0.020130, 0.636478, 0.145315, -0.878314, 0.034882, 0.369289, 0.505042, -0.077971, -0.441713, 0.633105, 0.203037, -0.633729, 0.378439, 0.100309, 0.131647, 0.285584, -0.499251, 0.110687, -0.560717, -0.687137, -0.012353, 0.153010, -0.737722, 0.709403, -0.863934, -0.415534, -1.325654, -0.532927, 0.665387, -0.437922, -0.725317, -0.380809, 0.019576, -1.280025, -0.966476, -0.470065, 0.106222, -0.275998, -0.067574, 0.112988, 0.487701, 0.149344, 0.426259, -0.024391, -0.299452, 0.145544, 0.216585, -0.004452, 0.452797, -0.436566, -0.057441, 0.050101, -0.882255, -0.167155, -0.277616, 0.160005, 0.404984, -0.825952, 0.642476, 0.003435, 0.060972, 0.027490, 0.777035, -0.341094, 0.469039, -0.850003, -0.440586, -0.238269, 0.434203, -0.752196, 0.435709, 0.532456, 0.214698, -0.033406, 0.007344, -0.432566, 0.158261, -0.591836, 0.091884, 0.932668, 0.428599, -0.429678, -0.015809, -0.163550, 0.550407, -0.778968, 0.309081, -0.444823, 0.266112, -0.669438, 0.243065, 0.903227, 0.331627, -0.487316, -0.170284, 0.311719, 0.095224, -0.366214, 0.147905, -0.240429, 0.472118, -0.544086, 0.091705, -0.305167, -0.038010, 0.511628, 0.568830, -0.525325, 0.674773, -0.318611, 0.432224, -0.605715, 0.422766, -0.232969, -0.735593, -1.054597, -0.369770, 0.683045, 0.210459, -0.071510, -1.148087, -0.574909, -0.990552, -0.468518, 0.607072, 0.513288, -0.242301, -0.869704, -0.522168, 0.218675, -0.125168, 0.332862, 0.066131, -0.727208, 0.294144, -0.249627, 0.852657, 0.473490, 0.709563, -0.219915, 0.004565, -0.393389, 0.549840, 0.610911, 0.787852, -0.012190, 0.420771, -0.627062, -0.051614, -0.170423, -0.807549, -0.605306, 0.039085, -0.529545, -0.295848, -0.505954, -0.714727, -0.080730, -0.731862, -0.001510, 0.187141, 0.128373, -0.041285, -0.972286, 0.528456, 0.449117, -0.517750, 0.510712, -0.260444, -0.257044, -0.527674, 0.110764, 0.296380, 0.205003, 0.525933, 0.620397, 0.091870, -0.179665, 0.287393, -0.082313, -0.244765, -0.739036, -0.603150, -0.822263, -0.567133, -0.123825, 0.646355, 0.167899, 0.663603, -0.576865, -0.102177, 0.105157, -0.477033, 0.437004, -0.254654, 0.104119, -0.597364, -0.843652, 0.310910, 0.000186, -0.750882, -0.459946, -0.401309, 0.637378, 1.132640, 1.146315, -0.387014, -1.036804, 0.046836, -0.171232, 0.122589, 0.112278, 0.311142, 0.274534, -0.188082, -0.447499, -0.742888, -1.137919, -1.334923, -0.324009, -0.665612, 0.261753, 0.372476, -0.778452, -1.295423, 0.126786, -0.680179, 0.466392, 0.815331, -0.149876, 0.543914, -0.443295, -0.577148, 0.395023, 0.088402, -0.230439, -0.345462, -0.426667, -0.230914, 0.998058, 0.614245, -0.192827, -0.220004, 0.415656, 0.392227, -0.018175, -0.144368, 0.120639, 0.092408, -0.466073, -1.005130, -0.790641, -0.430926, 1.113814, 0.532511, 0.196556, 0.097062, 0.176707, -0.236796, -0.421666, -0.015804, 0.833005, 0.916880, 0.132210, -0.037498, -0.637201, 0.286056, -0.171452, 0.277374, -0.232455, 0.116673, 0.304695, 0.156933, -0.171117, -0.242658, -0.181525, -0.426512, -0.507459, 0.308793, -0.026407, 0.186917, -0.388419, 0.361695, 0.662743, 0.218157, -0.692137, -0.120765, -0.045096, -0.128007, -0.278082, 0.634276, 0.100742, 0.310055, 0.105837, -0.159002, -0.023220, 0.489738, 0.165221, 0.551990, -0.178988, 0.279103, 0.512792, 0.527985, 0.353937, 0.398224, 1.148421, 1.131160, 0.325167, -0.207727, -0.177827, -1.261777, 0.218096, 0.755756, 0.609761, -0.215565, 0.144526, 0.125169, -0.267917, 0.078925, 0.911979, -0.264539, -0.034740, -1.391108, -0.537533, -0.261505, -0.262225, -0.578521, -0.137403, 0.025950, 1.029100, 1.199065, -0.815089, -0.206043, 1.397378, -0.754191, -0.640626, 1.223334, 0.486932, 0.315072, 0.132626, -0.204032, -0.132300, -0.261511, -0.244155, -0.399893, 0.859322, -0.073490, 0.648262, 0.505810, 0.696064, -0.515382, -0.502637, -1.061999, 0.301053, 0.163583, -1.637031, -0.912912, -1.171992, 0.189965, -0.511874, -0.112822, -0.881087, -0.315905, -0.398591, -1.152092, -0.233144, 0.729635, 0.487809, 0.661030, -0.133241, -0.284591, -0.822822, -0.403362, -0.494791, 0.593748, 1.353064, 1.083304, -0.347316, -0.768301, -0.216879, -0.268525, -0.783624, 0.358414, -0.932042, -1.200020, -1.073660, 0.428835, 0.844389, 0.278051, -0.491423, 0.322673, 0.960146, 0.581757, 0.452804, 0.498454, 0.718289, -0.694379, 1.120062, 0.146146, 0.780366, 2.084410, -0.086384, -0.720062, -0.444203, -0.504158, -1.215134, 0.765106, 0.500595, 1.064741, -0.636111, 1.185471, 0.016661, 0.164166, 0.018234, 0.661910, -0.138267, 0.141951, -0.098506, 0.105382, 0.972901, 0.898407, 0.231222, -0.441219, 1.054165, 0.049886, 1.216757, 0.145043, 0.159522, 0.625154, 0.395818, 0.594637, 0.399207, -0.419198, 0.394725, -0.515025, 0.488485, 0.092419, 0.139481, -0.099664, -1.068545, -0.321391, 0.149597, 0.477422, 0.079433, 0.676620, 0.929123, 0.698532, -0.090098, 0.073630, 0.213760, -0.296055, 0.080774, 0.088100, 0.236920, -0.398110, 0.037262, -0.969642, -0.089760, -0.215293, -0.807336, -0.437391, 0.362625, 0.071647, 0.079531, -0.336318, 0.111019, 0.313113, 0.796809, 0.234418, 0.606476, 0.044676, 0.394745, -0.601391, -0.165402, -1.282587, 0.556099, 0.693909, 1.287426, 0.692821, 1.049301, -0.044838, 0.008838, 0.347072, -0.642488, 0.441379, 0.572571, 0.837421, 0.202959, 0.117785, -0.448833, -0.148442, -0.267851, -1.595466, -0.152053, -0.354687, -0.524207, -0.743067, -0.627007, -0.823750, -0.469550, 0.234023, -1.129409, 0.317732, -0.326809, 0.396033, -0.548611, -0.461536, -1.130883, -0.122162, 0.328173, 0.474895, 0.715200, 1.086296, -0.582628, -1.607677, 0.524236, -0.809413, -0.190538, 0.778078, 0.260235, 0.399441, 0.246944, -0.146609, 0.118350, -0.340856, 0.534002, -0.673177, 1.094565, 0.466767, 0.630911, 0.688151, -0.628114, 0.047004, 0.152280, 0.290158, 0.470359, 0.276642, 1.110570, 0.322428, -0.377197, -1.078942, 1.317106, 0.231510, 0.635194, 0.304696, 1.160847, 0.226094, 0.768996, -0.704159, 0.327065, 0.346939, 0.009508, 0.833653, 0.747437, 0.276227, -0.561383, 0.583121, -0.123687, -0.028944, -0.733065, -0.091399, 0.562613, -0.269743, 0.130115, -0.517916, 0.371697, 0.040524, -0.335053, 0.209150, -0.534159, 0.760106, 0.704720, 0.095388, 0.463503, -0.549587, 0.585062, -0.473507, 0.024446, 0.344515, -0.237487, 0.244771, 0.337817, -0.539796, 0.227744, 0.138573, -0.679908, -0.577088, 0.660566, -0.480317, 0.328718, -0.251886, 0.202268, 0.116032, 0.594108, 0.085289, 0.915315, 0.342739, 0.318194, 0.158092, 0.363948, -0.790896, -0.059302, 0.411428, -0.017867, 0.827840, 0.611827, 0.041168, -0.214700, 0.093935, -0.545607, 0.325315, 0.585752, 0.593186, 0.016387, 0.353466, -0.115163, 0.360674, 0.314634, 0.415099, -0.268493, -0.580932, 0.443873, 0.317389, 0.831578, 0.610641, 0.482359, -0.411576, 0.621882, 0.869829, -0.367625, -0.575028, -1.082707, -0.536742, -0.505338, -0.360193, -0.144400, 0.411859, 0.664166, -0.228731, -0.946588, -0.243790, -0.645818, -0.415404, 0.364506, 0.605539, -0.030727, -0.196019, -0.116006, 0.264954, 0.140455, -0.225738, -0.213943, 0.228635, 0.086870, -0.145222, 0.549439, -0.425607, -0.725961, -0.064333, -0.237560, -0.068285, -0.074123, 0.522406, 0.172106, 0.152931, -0.313537, -0.797861, -0.029493, 0.850902, -0.166588, -0.076719, 0.326215, 0.128414, -0.287747, 0.165965, -0.535681, -0.160029, 0.045637, -0.001941, 0.117227, 0.409847, -0.201908, -0.790419, -0.720372, 0.617312, -0.688365, 0.247967, 0.696875, 0.313227, 0.283442, 0.982963, -0.025570, 0.177444, 0.080005, 0.304529, 0.152015, 0.077190, -0.101301, 0.361640, -0.026406, 0.102361, 0.257927, 0.741744, 0.631662, 0.066687, 0.323449, -0.642091, -0.417235, 0.142204, 0.861013, -0.069501, 0.456454, -0.281995, 0.053957, -0.677310, -0.630668, 0.003437, 0.489507, -0.103657, 0.216214, 0.097422, -0.404153, -0.265725, 0.106339, 0.278115, 0.458842, -0.060888, 1.375556, 0.247112, 0.251833, -0.554659, -0.398323, 0.578460, 0.798957, 0.372519, 1.096976, 0.075931, 0.237968, 0.236483, -0.792831, 0.298970, 0.586369, 0.647793, 0.668101, -0.007628, 0.402327, -0.714267, -0.198330, -0.266248, 0.033963, -0.370821, 0.068043, 0.287692, -0.905126, -0.530261, -0.371576, 0.443088, -0.082283, -0.298952, -0.512222, -0.192140, -0.571352, -0.810290, -1.485561, -0.804005, -0.586571, -0.048583, 0.141019, 0.544763, -0.530432, 0.043125, -0.249309, -0.833161, -0.507488, 0.114888, 0.692184, 0.461209, 0.349651, -0.117963, -0.442402, 0.306139, 0.506886, 0.449795, 0.227105, 0.001632, 0.553967, -0.241075, -0.502845, 0.697421, 0.009038, -0.527970, 0.471244, -0.322028, 0.030981, -0.236776, -0.390697, -0.902153, 0.731117, -0.307127, 0.057400, -0.530634, 0.445709, 0.505744, 1.085978, -0.103864, -0.210751, -0.686257, 0.040237, -0.288704, 0.717794, 0.177132, -0.129018, -0.151869, -0.101196, -0.776759, -0.439145, -0.180032, 0.452428, -0.540476, -0.269791, -0.088315, -0.586774, -0.708410, 0.237415, -0.656630, 0.177749, -0.123443, 0.206095, 0.189131, -0.327131, -0.275042, -0.135037, -0.199263, -0.052252, -0.032116, -0.905502, 0.190252, 0.703101, -0.431028, 0.634218, -0.393335, 0.113954, 0.023562, 0.020556, -0.181804, -0.428441, -0.261459, -0.409347, 0.072044, 0.688720, -0.581477, -0.069830, 1.221860, 0.337426, 0.066166, 0.142633, -0.564022, -0.767025, -0.830054, -0.216213, 1.124485, 0.107376, -0.354534, 0.361813, -0.283455, -0.332842, 0.433781, 0.048423, 0.531353, 0.515063, 0.654111, 0.308108, 0.479955, 0.748290, -0.325071, 0.770176, -0.132806, 0.527627, -0.825988, -0.070309, -0.074547, 0.566291, 0.998302, 0.857097, -0.416863, 0.034591, -0.749334, 0.205325, -0.390173, -0.532263, 0.098478, -0.013084, -0.636191, 0.179289, 0.535902, 0.241676, 0.394798, -0.402120, -0.844597, -0.124329, 0.359754, 0.168105, 0.724005, 0.314761, -0.303422, 0.311846, 1.273710, 0.469753, -0.302336, -0.241331, 0.123582, -0.891454, 0.397014, -0.457186, 0.130499, -0.515711, -0.947736, 0.503163, -0.522960, -0.677613, -0.554926, 0.217935, 0.168550, -0.520980, 0.379305, 0.329388, -0.762592, -0.604420, -0.444110, -0.419347, -0.631583, 0.123806, 0.578472, -0.562151, -0.108394, -0.004318, 0.150699, -0.571464, 0.025183, 0.144188, -0.346006, -0.483239, -0.428235, -0.361871, 0.440712, 0.456018, -0.458694, -0.480661, -0.023519, 0.182697, 0.651627, 0.436373, 0.176559, -0.129967, 0.671924, 0.048720, -0.094410, -0.127951, -0.034549, 1.099050, -0.005196, -0.076991, -0.058784, -0.874461, 0.198292, -0.023564, -0.400556, 0.294527, -0.242003, 0.113098, 0.276704, 0.402768, -0.546469, -0.356441, 0.033516, 0.525857, 0.814033, 1.070120, 0.461359, 1.017978, 0.808882, 0.068493, 1.008855, 1.237886, -0.281473, 0.095701, -0.436655, -0.523807, 0.161371, -0.298498, 0.734469, 0.327809, 0.186548, -0.130889, 0.468916, 0.315289, 1.282416, 0.857562, -0.076644, 1.607314, -0.364278, -0.242166, -1.229447, -0.524212, -0.031441, 0.822576, -0.647795, -0.818283, 0.907422, 0.764036, 0.453632, 0.901996, -0.864239, 0.419421, -0.090496, -0.452073, -0.365890, -0.695048, -0.080690, 0.267096, -1.725775, 0.782065, 0.110090, -1.048103, -1.598550, -0.745771, 0.558249, -0.851897, -0.560238, 0.031375, 0.242276, 0.488676, -0.265678, 0.889177, 1.064256, 0.173241, 0.179714, -0.529830, 0.257247, 0.502374, -0.806604, 0.674311, -0.150940, -0.842852, -0.161597, 0.007502, -1.338011, -0.091793, -0.814381, -1.346641, -1.483674, -0.397396, -0.242262, 0.612499, 0.237083, -1.031297, -0.336524, -0.512763, -0.285716, -0.613264, -0.979113, -0.430354, -0.308610, -0.127146, -0.733938, -0.897839, -0.432340, -0.078134, -0.999141, -3.117617, 3.964327, -3.387841, -4.713222, -7.464972, -3.620729, 0.676120, -2.806000, 0.368608, 6.293460
