-0.308690, 0.527026, -0.298564, 0.003843, -0.181193, 0.560592, 0.036639, -0.027645, -0.273531, -0.091167, 0.059020, 0.221322, 0.351099, 0.623104, 0.265498, -0.290426, 0.478451, 0.644806, -0.921130, -0.172689, 0.368705, 0.508492, 0.062197, -0.082090, 0.319427, -0.173877, 0.803821, -0.557901, -0.324610, -0.306419, 0.696247, 0.050879, -0.433552, -0.424534, 0.358550, 0.663872, -0.115378, 0.217367, 0.559627, -0.275559, -0.211929, 0.583824, -0.212503, 0.886107, 0.130852, 0.493773, -0.044597, 0.119451, 0.094641, 0.400294, 0.151736, 0.230414, 0.095927, -0.154556, 0.401638, -0.226830, 0.176219, -0.077876, 0.343670, 0.258356, 0.307510, 0.282287, 0.101566, -0.200740, 0.148057, -0.280298, 0.231264, -0.876478, 0.449087, 0.115701, 0.328290, -0.038198, 0.307513, 0.283203, -0.319746, -0.028019, -0.634941, 0.215436, 0.576802, -0.304430, 0.367894, -0.147127, 0.639149, -0.194487, -0.220607, -0.188192, -0.196171, 0.530911, -0.093812, -0.377921, -0.535011, -0.467927, -0.155887, 0.420776, -0.187506, -0.008163, 0.770094, -0.424029, -0.396443, 0.527583, 0.454911, 0.530138, -0.740752, 0.264241, 0.062159, -0.415621, 0.437820, 0.553418, -0.016556, 0.679358, -0.753236, -0.093616, 0.527093, 0.589867, 0.064862, -0.344776, 0.551265, -0.151959, -0.569388, -0.043398, 0.158730, 0.343796, -0.116539, -0.051656, 0.020354, -0.142574, -0.502363, 0.566721, -0.649802, 0.434386, -0.646941, -0.352710, -0.009702, -0.453016, 0.816904, -0.219780, -0.618271, 0.281102, -0.146003, 0.325554, 0.901717, -0.119288, 0.010938, 0.607097, -0.109270, -0.252992, 0.195973, 0.613413, 0.540400, 0.441397, 0.221342, -0.423039, 0.614012, 0.017183, 0.122924, 0.351442, -0.726463, 0.392984, -0.427278, 0.055519, -0.118563, -0.095808, -0.082266, -0.379726, 0.133581, -0.104777, -0.082827, -0.031218, -0.031082, 0.533269, 0.432240, 0.417037, 0.174398, 0.075265, 0.787151, -0.563563, -0.630052, 0.123002, -0.018700, -0.143799, -0.316406, -0.839366, 0.005516, -0.196222, 0.807608, -0.800911, 0.164921, -0.259869, 0.251235, -0.228853, -0.343734, 0.136305, -0.684367, -0.530678, 0.074375, 0.037171, 0.043615, 0.637318, -0.106284, -0.337254, 0.448096, -0.152608, -0.309559, 0.782361, -0.274837, 0.383313, 0.679195, -0.398179, 0.900262, 0.040832, -0.258393, -0.218693, 0.364197, -0.202908, -0.354315, -0.007108, -0.199466, 0.355316, -0.411542, -0.232319, 0.870398, 0.127952, -0.365469, 0.345280, 0.339285, 0.583966, 0.349881, 0.171453, 0.142763, -0.001821, -0.460459, -0.088391, 0.222434, -0.241659, 0.463016, -0.500157, 0.040027, -0.342691, -0.502841, 0.706906, -0.519811, -0.598209, -0.189086, 0.522109, -0.767675, -0.579421, -0.318935, 0.282581, -0.321740, -0.150871, 0.076770, 0.537338, 0.288721, 0.483397, -0.369331, 0.162414, -0.021853, 0.031261, -0.124996, 0.360771, -0.495951, -0.212700, 0.090063, -0.800057, -0.061626, -0.281531, -0.009028, 0.210386, -0.703509, 0.759977, -0.020706, -0.100666, 0.154843, 0.667358, -0.540968, 0.382803, -0.753373, -0.133075, -0.100425, 0.409888, -0.578429, 0.432787, 0.216283, -0.102779, -0.410935, -0.156118, -0.315335, -0.274275, -0.327639, -0.179099, 0.283095, 0.209362, -0.287188, 0.004319, -0.096421, 0.355878, -0.606810, -0.168338, -0.425156, 0.248394, -0.498436, 0.750818, 0.799742, 0.157986, -0.317511, -0.397903, 0.343197, -0.238422, -0.127429, 0.457615, -0.025201, 0.400167, -0.345697, -0.129030, 0.094250, -0.654417, 0.286559, 0.781384, -0.466326, 0.584578, -0.129804, 0.371451, -0.730649, 0.144873, -0.169578, 0.157313, -0.481814, -0.212854, 0.634171, 0.186859, -0.017987, -0.791180, -0.187474, -0.645505, -0.120252, 0.573531, 0.331612, -0.310383, -0.759571, -0.325423, 0.504891, -0.373855, 0.011253, -0.121128, -0.659377, 0.100809, -0.425130, 0.552221, 0.154150, 0.620088, -0.389744, 0.403180, -0.764807, 0.619988, 0.887344, 0.474107, -0.158284, 0.045097, -0.347407, 0.451701, 0.010562, -0.778084, -0.381257, -0.219125, -0.430593, -0.402743, -0.453009, -0.625475, -0.005280, -0.558427, 0.080966, 0.037304, -0.113631, -0.310174, -0.995667, 0.437826, 0.404371, -0.543064, 0.448777, -0.285494, -0.331680, -0.576912, 0.223236, 0.117387, -0.061930, 0.299979, 0.415937, 0.069252, -0.220932, 0.192218, 0.043455, -0.079691, -0.357636, -0.171968, -0.489648, -0.327734, -0.197297, 0.668281, 0.044422, 0.382709, -0.241493, -0.051436, -0.079803, -0.689031, 0.101692, -0.076240, 0.108060, -0.333358, -0.736367, 0.124245, 0.012807, -0.285628, -0.327574, -0.266688, 0.588192, 0.696658, 0.806130, -0.502949, -0.343191, 0.421958, 0.289945, -0.117412, 0.194950, 0.143960, 0.047458, -0.795322, 0.046246, -0.147825, -0.710009, -0.559076, -0.280611, -0.795292, -0.216035, 0.228442, -0.496946, -0.810536, 0.002345, -0.800000, 0.629425, 0.627524, -0.400261, 0.738741, -0.247687, -0.596684, 0.195255, -0.095362, -0.007881, 0.432547, -0.181390, -0.783438, 0.333282, 0.132661, -0.526005, -0.496810, 0.685420, 0.786435, -0.027291, -0.025760, 0.105415, -0.225505, -0.781321, -0.767934, -0.212510, -0.010022, 0.342520, -0.018549, -0.396655, -0.000116, 0.465220, 0.169343, -0.350054, 0.472883, 0.465975, 0.396817, -0.151554, -0.101563, -0.147891, 0.278561, -0.193534, 0.302559, -0.535206, -0.175971, 0.396483, 0.123163, 0.345041, 0.019581, 0.256517, -0.324572, -0.039074, 0.295948, 0.230593, -0.122984, -0.659311, -0.263809, 0.428998, 0.292146, -0.698659, -0.056477, -0.063868, -0.453487, -0.629963, 0.291203, 0.058496, 0.331369, 0.010073, -0.171773, -0.159945, 0.305762, -0.156991, 0.305729, 0.052361, 0.143901, 0.087782, 0.198326, -0.055781, 0.140436, 0.233232, 0.258440, 0.279411, 0.090437, 0.374031, -0.357685, 0.063920, -0.214712, -0.175864, -0.080505, 0.179826, 0.068204, 0.364125, 0.671990, 0.775737, -0.435255, -0.053485, -0.807659, -0.355202, 0.315390, -0.524689, -0.078802, -0.308812, -0.153696, 0.457895, 0.529020, -0.544262, -0.543003, 0.804091, 0.102171, -0.716296, 0.229622, 0.091534, -0.502328, 0.024888, 0.031651, 0.134865, -0.336141, -0.533831, -0.023914, 0.298531, 0.373634, -0.041103, 0.420812, 0.358016, 0.032273, 0.067214, -0.222297, -0.245848, 0.176820, -0.687739, -0.219967, -0.782300, 0.160832, -0.011643, -0.323547, -0.493221, 0.036545, -0.016934, -0.158886, 0.037963, -0.096450, -0.130812, 0.507629, 0.003225, -0.849180, 0.208662, -0.076864, -0.538262, 0.283597, 0.821201, -0.160793, -0.116547, -0.439959, -0.551634, 0.022730, -0.075775, 0.877504, -0.721942, -0.436564, 0.091011, 0.594573, -0.174463, 0.755048, 0.003620, 0.173654, -0.031916, 0.028517, -0.137861, 0.450766, -0.120485, -0.020416, 0.111490, -0.193336, 0.414251, 0.492612, -0.063558, -0.109284, 0.246504, 0.187543, -0.400015, 0.357120, 0.352109, 0.191874, -0.258793, -0.044934, 0.234943, 0.327783, -0.144410, 0.322980, -0.489502, -0.036158, -0.045861, -0.389305, 0.578885, 0.477671, 0.269188, -0.204191, 0.926962, 0.036829, 0.622271, -0.005514, 0.687872, -0.143117, -0.176875, 0.096502, -0.041457, -0.402977, 0.029923, -0.731932, 0.275590, 0.124171, -0.065992, -0.148539, -0.591602, -0.377310, 0.087603, 0.775155, -0.069930, 0.227644, 0.659905, 0.566324, 0.274787, 0.117047, 0.261792, -0.180065, -0.152573, 0.524806, -0.155691, -0.351633, -0.244010, -0.369065, -0.354343, -0.172042, -0.169778, -0.563248, -0.608868, 0.127249, 0.139347, 0.017643, -0.231190, -0.015132, 0.769189, 0.451766, -0.188546, -0.143109, -0.568951, -0.512848, -0.042490, -0.358313, 0.368863, 0.339322, 0.024572, 0.396035, -0.119298, 0.561125, 0.293313, 0.215475, 0.035172, 0.746624, -0.256057, 0.391175, 0.222980, 0.210069, 0.210016, -0.102539, -0.088999, -0.651880, -0.219267, -0.867221, -0.689416, -0.750163, 0.282735, -0.242334, 0.107843, -0.018970, -0.878864, 0.018658, -0.633426, -0.543306, 0.092709, 0.280251, -0.351768, -0.064673, 0.521717, -0.961991, -0.162503, 0.451070, -0.206851, -0.574671, 0.679817, -0.267434, 0.032419, 0.086639, 0.034463, 0.126496, -0.074005, 0.245878, 0.048081, -0.074143, 0.418965, -0.556765, 0.262502, -0.525663, 0.141566, -0.020812, -0.558133, 0.587082, 0.613013, -0.144084, 0.197851, -0.190361, 0.396423, -0.380999, 0.316425, 0.132472, 0.615345, 0.144097, 0.500080, -0.062112, 0.523204, -0.619963, 0.716959, -0.574114, -0.302517, 0.022264, -0.645927, 0.023765, 0.007987, -0.584450, -0.622399, 0.200369, -0.198843, -0.045182, -0.693031, -0.058389, 0.568651, -0.308761, 0.020138, -0.614514, 0.288218, -0.025229, -0.303708, 0.199706, -0.451248, 0.778073, 0.584599, -0.003520, 0.378392, -0.624443, 0.584934, -0.518791, 0.089039, 0.357669, -0.238156, 0.093668, 0.244771, -0.624581, 0.228357, 0.135362, -0.756416, -0.651941, 0.676034, -0.517631, 0.247104, -0.272384, 0.144540, 0.101807, 0.562131, 0.286026, 0.819333, 0.246214, 0.298962, 0.102480, 0.407473, -0.619677, 0.015161, 0.566973, -0.011158, 0.763087, 0.670320, 0.116308, -0.157973, 0.153853, -0.543142, 0.466389, 0.602459, 0.541143, 0.375685, 0.390505, -0.071276, 0.297919, 0.334190, 0.427724, -0.395972, -0.613823, 0.704885, 0.125815, 0.778290, 0.612835, 0.593313, -0.224791, 0.552729, 0.793454, -0.099661, -0.561561, -1.021048, -0.568684, -0.444210, -0.357172, -0.082322, 0.423595, 0.723930, -0.163315, -1.013671, -0.297406, -0.605539, -0.327812, 0.596332, 0.735740, -0.083805, -0.133470, -0.243010, 0.225910, 0.107800, -0.300757, -0.227358, 0.350574, -0.035286, -0.102610, 0.458536, -0.439835, -0.822383, -0.116708, -0.306717, -0.025030, -0.217920, 0.384678, 0.097281, 0.086363, -0.471100, -0.840352, -0.180915, 0.866258, -0.278461, -0.047554, 0.353795, 0.011695, -0.460937, 0.046821, -0.575001, -0.177531, -0.063769, -0.118738, 0.001974, 0.293302, -0.235046, -0.853199, -0.806863, 0.627668, -0.798061, 0.063644, 0.461452, 0.206986, 0.089093, 0.750440, -0.014371, 0.308122, -0.044081, 0.068089, 0.138972, -0.106960, -0.394480, 0.279706, -0.022233, -0.168098, 0.141921, 0.466861, 0.592643, 0.171999, 0.337805, -0.391254, -0.424789, 0.305909, 0.495916, -0.183822, 0.262756, -0.070507, -0.235861, -0.798235, -0.721302, -0.187095, -0.013334, -0.064272, 0.017935, 0.218013, -0.102022, -0.361796, -0.086449, 0.023647, 0.446130, -0.108314, 0.554335, 0.494075, 0.027050, 0.046219, -0.212754, 0.644766, 0.318677, 0.268203, 0.661526, 0.514658, 0.384334, 0.161104, -0.745474, 0.540889, 0.141262, 0.386397, 0.217542, 0.060754, 0.698595, -0.369607, 0.059015, 0.241513, -0.007124, -0.429033, -0.007554, 0.343920, -0.562354, -0.394576, -0.236722, 0.610583, -0.290174, -0.374705, -0.109337, -0.603267, -0.122204, 0.079406, -0.654335, -0.677344, -0.180389, 0.139552, 0.071117, 0.279579, 0.003735, 0.280846, 0.154211, -0.206015, -0.185868, 0.016000, 0.309596, 0.307308, 0.431227, 0.042084, -0.223884, 0.340319, 0.230452, 0.377963, -0.015694, -0.292185, 0.604265, -0.124633, -0.082507, 0.780717, 0.140082, -0.514909, 0.240436, -0.463351, 0.179158, -0.407977, 0.000551, -0.509194, 0.429204, -0.589458, -0.327411, -0.540349, 0.244770, 0.159247, 0.948225, -0.121965, -0.226857, -0.500866, 0.085593, -0.278551, 0.588679, 0.100914, 0.180204, -0.272840, 0.053358, -0.683921, -0.386301, -0.272241, 0.610006, -0.344862, -0.257512, -0.212680, -0.574076, -0.839643, 0.012191, -0.624722, 0.263994, -0.265234, 0.168399, 0.132786, -0.281749, -0.362347, -0.106971, 0.040116, 0.020943, -0.016972, -0.972404, -0.066815, 0.649758, -0.510429, 0.865011, -0.177719, 0.415844, 0.094973, -0.064528, -0.301331, -0.343386, -0.092301, -0.216558, 0.038643, 0.440297, -0.515010, -0.163453, 0.837950, 0.602269, 0.124895, 0.216282, -0.532355, -0.591088, -0.735724, -0.178555, 0.825504, 0.412138, 0.021683, 0.495418, -0.199535, 0.021014, 0.485273, -0.230352, 0.152776, 0.771790, 0.776486, 0.043572, 0.576227, 0.846473, -0.164848, 0.784293, 0.052287, 0.395725, -0.846645, -0.070441, -0.145333, 0.323077, 0.690656, 0.654177, -0.391199, 0.179637, -0.724593, 0.561655, -0.263456, -0.282327, -0.075426, 0.171138, -0.402530, -0.107059, 0.416016, 0.733162, 0.764529, -0.478079, -0.865551, 0.326249, 0.607803, -0.043033, 0.727420, 0.762972, -0.230977, -0.052953, 0.769028, 0.596871, -0.242751, 0.034608, 0.187935, -0.631902, 0.654059, -0.650198, 0.101164, -0.546558, -0.813636, 0.443592, -0.077760, -0.629456, -0.448667, 0.299091, 0.580211, -0.355933, 0.217925, 0.362869, -0.763825, -0.625346, -0.365898, -0.270255, -0.501824, 0.311388, 0.596726, -0.439849, -0.148611, 0.051688, 0.303015, -0.352463, 0.054859, 0.014986, -0.205628, 0.053014, -0.104631, -0.180827, 0.294868, 0.735525, -0.090676, -0.738422, -0.271592, 0.354568, 0.409869, -0.018417, 0.383763, 0.214272, 0.254476, -0.254534, 0.011295, 0.025828, -0.573210, 0.466465, 0.097765, 0.278034, -0.493329, -0.565201, -0.392985, -0.000713, -0.621889, 0.003242, -0.029097, 0.140484, 0.203278, 0.158461, -0.338929, 0.137608, -0.020830, -0.222474, 0.782665, 0.036394, 0.532412, 0.514376, 0.243342, 0.174984, 0.438249, 0.323118, -0.674493, -0.412219, -0.658966, -0.221291, -0.098466, 0.092339, 0.445590, -0.097474, -0.115928, -0.481049, 0.420925, 0.581657, 0.492959, 0.254651, -0.113870, 0.308230, 0.108456, -0.222611, -0.365112, 0.471368, 0.451361, 0.377804, 0.391084, 0.148084, 0.244439, 0.647193, -0.368385, 0.362606, -0.015547, 0.041182, 0.251912, 0.067331, 0.253436, -0.237619, 0.421226, 0.390919, -0.217449, -0.218228, 0.103751, -0.613512, -0.422776, 0.069473, 0.260530, 0.370018, 0.093708, 0.063073, -0.195955, -0.296320, 0.045048, -0.056832, -0.305614, 0.337941, 0.155230, 0.600482, 0.059097, 0.652150, 0.004539, -0.117356, 0.137967, -0.504368, -0.259881, -0.454584, -0.311649, -0.405336, -0.318371, -0.811107, -0.163413, -0.173199, -0.344859, 0.221585, 0.372393, -0.666312, 0.530597, 0.618438, 0.462853, -0.149966, -0.382189, -0.323742, -0.396005, 0.040495, -0.262023, -0.393700, -0.291493, -0.509883, -0.202518, -0.358867, 0.573131, -0.451758, -0.361248, 0.128260, -0.847365, -0.093021, 0.077639, 0.152187, 0.762840, 0.231285, 0.339802, -0.398100, -0.794380, -0.503960, -0.336421, -0.110241, 0.103430, 0.231550, 0.312087, 0.139670, 0.091043, -0.865479, -0.444702, 0.551261, 0.128057, -0.369574, -0.368533, 0.159596, -0.214803, 0.264199, 0.454571, -0.240831, 0.378858, 0.339079, 0.206297, -0.170061, 0.487586, 0.789273, -0.711909, 0.626422, 0.723705, -0.418041, -0.875807, 0.160854, 0.407198, 0.558960, -0.643527, 0.709148, -0.105485, 0.131096, 0.413720, -0.369718, 0.278148, 0.240724, 0.240102, 0.064590, -0.168057, 0.254031, -0.226071, 0.147756, -0.058867, 0.215168, 0.745509, 0.040624, -0.256385, -0.103552, -0.488955, -0.855885, 0.696760, -0.227803, 0.380613, -0.009331, -0.302545, 0.173255, -0.058626, 0.552931, 0.072272, 0.232337, -0.440762, -0.486020, -0.148515, -0.602139, 0.089763, 0.439894, 0.037765, -0.021859, 0.138012, -0.640020, 0.744933, 0.544132, 0.159535, 0.526863, 0.637755, 0.045949, -0.651258, -0.741711, 0.185190, 0.951918, 0.143090, 0.107083, 0.573981, -0.545235, 0.503852, -0.421752, 0.655260, -0.017677, -0.079295, -0.179271, -0.686014, -0.261570, 0.476641, -0.061301, 0.421758, -0.094878, 0.176591, -0.096193, -0.475436, -0.426968, -0.712307, 0.083184, 0.110534, -0.442435, 0.366508, 0.444862, 0.077393, 0.156111, -0.087523, -0.011139, 0.063790, -0.580677, 0.718506, -0.029828, -0.331903, -0.684345, 0.050548, -0.366767, -0.798533, -0.343981, 0.360656, 0.383752, 0.134045, -0.408089, -0.185582, 0.994085, 0.501073, 0.474653, 0.042483, 0.319647, -0.427079, 0.132980, 0.016198, 0.495780, -0.449074, 0.613011, -0.278297, 0.321274, -0.543866, 0.402669, -0.796660, 0.263197, 0.413717, 0.913621, 0.017704, -0.141518, -0.130240, -0.428697, -0.157188, -0.605531, -0.304831, 0.207025, -0.327399, 0.226877, -0.615321, -0.482187, -0.167851, -0.283909, 0.048666, -0.282898, -0.198175, -0.052782, -0.097951, -0.159236, 0.017271, -0.659035, 0.790672, 0.108383, 0.353534, 0.004881, -0.778916, -0.313336, 0.059681, -0.576597, -0.251868, 0.400820, -0.025964, 0.265562, -0.501459, -0.050491, 0.349222, -0.554569, -0.107029, 0.725417, -0.622688, 0.070160, 0.030085, 0.446140, -0.036991, -0.626262, -0.694002, 0.197387, 0.169258, 0.223030, -0.443677, 0.339646, 0.526502, -0.257675, 0.853579, -0.073107, 0.100990, -0.544625, -0.494746, 0.288443, 0.112433, -0.140032, -0.434213, -0.184894, 0.165626, -0.716522, -0.909971, -0.477039, 0.968698, 0.032523, -0.165739, -0.145757, -0.464542, -0.050450, 0.257087, -0.485683, 0.046743, -0.259885, 0.005144, 0.232710, -0.528496, 0.130818, 0.673099, 0.158627, -0.168086, 0.142242, 0.938128, 0.446219, 1.042189, 0.345135, 0.481313, 0.340966, 0.737484, -0.650342, -0.092104, 0.120648, 0.283856, 0.292297, -0.011314, 0.392578, -0.370164, -0.293934, -0.625163, 0.131666, -0.253406, 0.183497, 0.046344, 0.110048, -0.360357, -0.526344, -0.737183, -0.550279, -0.712434, -0.080560, -0.105829, 0.383381, -0.551994, 0.295370, -0.233027, 0.441942, 0.031688, -0.387261, -0.468988, 0.162205, 0.302180, 0.659166, 0.394778, 0.040843, -0.039868, 0.106501, 0.345308, 0.231831, 0.566368, -0.514823, 0.212097, -0.143214, -0.320727, -0.658812, 0.220722, 0.362596, 0.302900, -0.045450, 0.276856, 0.368073, 0.127547, 0.066438, -0.167685, 0.170367, 0.096978, -0.302372, -0.362710, -0.534076, 0.045683, -0.467275, 0.288823, -0.234181, 0.033861, -0.777574, -0.140060, 0.614340, -0.011278, 0.468779, 0.162456, 0.211221, -0.853647, 0.417299, 0.479685, 0.201703, -0.288131, 0.942471, -0.298015, -0.381465, -0.503059, 0.142497, -0.575172, -0.483779, -0.524373, 0.285723, 0.569749, -0.202196, 0.397976, -0.324274, 0.041729, 0.433068, -0.339269, -0.184691, 0.250013, 0.084150, 0.134511, 0.242062, 0.050189, -0.052264, -0.161054, 0.267744, -0.248670, 0.172074, 0.238353, -0.829146, -0.223330, -0.900991, 0.156069, -0.075027, 0.228053, 0.154702, 0.405290, 0.059629, -0.614693, 0.045586, 0.315880, -0.381823, 0.367168, 0.339589, -0.234259, -0.007757, 0.223106, 0.159339, -0.014626, 0.820819, 0.341176, -0.181700, 0.617777, -0.047405, 0.283721, 0.625272, -0.441544, -0.109678, 0.648959, -0.531088, -0.632326, -0.138500, 0.241221, -0.135700, 0.264975, -0.775732, 0.026137, 0.016188, -0.148161, 0.462574, -0.589880, 0.188921, 0.089545, -0.073265, -0.126708, -0.390375, 0.146393, 0.699770, 0.337163, 0.454045, -0.215109, -0.241770, -0.506114, 0.020920, -0.060600, -0.519018, -0.399742, -0.795412, -0.135729, -0.351838, 0.573246, -0.192003, 0.653272, -0.053519, 0.229082, 0.692962, -0.743906, -0.147362, 0.295218, 0.087941, 0.436356, -0.580974, 0.334948, -0.168378, -0.156861, -0.090486, -0.364560, -0.022809, 0.436042, 0.218827, 0.327668, -0.265586, -0.704687, 0.304818, 0.418297, -0.294328, -0.908399, -0.132935, -0.218940, 0.745895, 0.066356, -0.061169, -0.518168, -0.203248, -0.348631, 0.528364, -0.188874, -0.272514, -0.256268, -0.275899, 0.542980, -0.027625, -0.428742, 0.213817, -0.650596, 0.089220, -0.399955, 0.149171, -0.093453, -0.148212, -0.177198, -0.161723, 0.380622, -0.225626, -0.318622, 0.274101, -0.026168, 0.854437, -0.088082, 0.072798, -0.021942, -0.314489, 0.279869, 0.564744, -0.356441, -0.138365, 0.652917, 0.185937, 0.157686, -0.853505, -0.550778, 0.048590, 0.455115, -0.059104, 0.034355, 0.654011, -0.613778, 0.505533, 0.067687, -0.237217, 0.293328, 0.195884, 0.319912, -0.051691, -0.683144, 0.389016, -0.512166, 0.251321, -0.500411, -0.573431, -0.611669, 0.446081, 0.349638, -0.172485, 0.266605, -0.150013, 0.130811, -0.126626, -0.290567, 0.318877, 0.089583, -0.313832, -0.126363, -0.346953, -0.317978, -0.630065, 0.780579, 0.000710, -0.667230, -0.713858, -0.034384, -0.946033, 0.269658, 0.194716, 0.187954, 0.185848, -0.641902, -0.357273, 0.037272, 0.517891, 0.379815, -0.147303, -0.338690, 0.311187, -0.359842, -0.389036, 0.685831, -0.334939, 0.627243, 0.012714, -0.603995, 0.134787, -0.010963, -0.001731, -0.948075, -0.214508, -0.565277, -0.363516, -0.512050, 0.160179, -0.515583, -0.242212, -0.519472, 0.210440, 0.372693, -0.036074, 0.339772, 0.561968, -0.103214, 0.428660, -0.824408, 0.455394, -0.101821, -0.217760, 0.012194, -0.443340, -0.253567, -0.258087, -0.172637, 0.323689, 0.096950, 0.039624, 0.449718, -0.147964, 0.266412, 0.309309, -0.450996, 0.063620, -0.138796, -0.146861, -0.213383, 0.428327, -0.141719, -0.287180, -0.887468, -0.065307, 0.355393, -0.262004, 0.645671, 0.130394, -0.019265, 0.406401, -0.766297, -0.017447, -0.695563, -0.960306, 0.364760, -0.421812, -0.357039, -0.052049, 0.298754, -0.006300, -0.093478, 0.481803, 0.438948, 0.498069, 0.101644, -0.034105, 0.368499, -0.556603, 0.851505, -0.208174, -0.040014, -0.558324, -0.389665, -0.600452, 0.352316, -0.339155, -0.762584, -0.117568, -0.215401, -0.889988, -0.689917, 0.204083, 0.051583, -0.636654, -0.878422, 0.108723, 0.463919, 0.126167, 0.060708, -0.395984, -0.402204, -0.151063, -0.479073, -0.120017, 0.444698, -0.243261, -0.187025, 0.256080, -0.445883, -0.770069, -0.656781, -0.778186, -0.154577, 0.448610, -0.470829, -0.457259, -0.226522, -0.467753, -0.210917, -0.358176, -0.366561, 0.200234, 0.194573, -0.318155, -0.335854, 0.330197, -0.243386, 0.205134, -0.476359, -0.408979, 0.388803, 0.336935, -0.823775, 0.141352, 0.284115, -0.414401, 0.353737, 0.615211, 0.550527, 0.038052, 0.083476, -0.740688, -0.202394, 0.323917, -0.209209, 0.658944, 0.672640, -0.486072, -0.137566, -0.062842, -0.261561, -0.713609, -0.321065, 0.462900, 0.256214, -0.222283, -0.011941, -0.072578, 0.411254, 0.227360, -0.179931, -0.404655, -0.049444, 0.212122, -0.084822, -0.145496, -0.587831, -0.298101, 0.122710, -0.407147, 0.030337, -0.690585, 0.383279, -0.444161, -0.701236, -0.916288, 0.521048, -0.608687, 0.145623, -0.203504, -0.185421, -0.523268, -0.315427, 0.521694, 0.534063, 0.725215, -0.221256, 0.524030, -0.002189, -0.137650, -0.319727, -0.403524, 0.133300, 0.285976, 0.491906, 0.145211, 0.380007, 0.335211, -0.078139, 0.662989, 0.066854, -0.027458, 0.442673, -0.106332, 0.446229, -0.380038, 0.043891, 0.350509, -0.204341, -0.738228, 0.304868, 0.411716, 0.083923, 0.911354, -0.180062, -0.498460, -0.124973, -0.413448, -0.051082, 0.541674, 0.347662, 0.445202, -0.096806, -0.693832, 0.005681, -0.143165, 0.058095, 0.158258, -0.269824, 0.161853, 0.569964, -0.539372, -0.021492, 0.348865, 0.492308, 0.204702, 0.628353, -0.688601, -0.427429, -0.612876, -0.351864, -0.285692, -0.884278, -0.504955, 0.712839, -0.077765, -0.407349, -0.677984, -0.346492, 0.874585, 0.145097, -0.081488, -0.913908, 0.650001, -0.462628, 0.062592, 0.312755, -0.099339, -0.352289, -0.748985, 0.055088, -0.354258, -0.447453, 0.203158, -0.374451, 0.321394, 0.161911, 0.559296, -0.531396, -0.107705, 0.263878, 0.206585, -0.264372, -0.008724, -0.517963, -0.246156, 0.383416, 0.186089, 0.358679, 0.123293, 0.471512, 0.757473, -0.346137, -0.117512, -0.492495, 0.147969, -0.278593, -0.662775, -0.543906, -0.147970, 0.525163, 0.500012, -0.036933, -0.162532, 0.074265, 0.269433, 0.348117, 0.198581, -0.692560, 0.146334, 0.814155, 0.582496, 0.659517, -0.032894, -0.781413, 0.099496, -0.622849, -0.338221, -0.748600, -0.349540, 0.435749, -0.144687, -0.070296, -0.153263, 0.069645, 0.059928, 0.296056, 0.400854, -0.419821, 0.071459, 0.158939, -0.430073, 0.715207, -0.156473, -0.281632, -0.703588, 0.402318, -0.025688, 0.186585, 0.587511, 0.764182, 0.118365, -0.704234, 0.017414, -0.166195, -0.333496, 0.246879, -0.477524, -0.523838, -0.071650, -0.158768, 0.365692, -0.651605, 0.579256, 0.132623, -0.223665, -0.190652, -0.024667, 0.382088, -0.014662, -0.885640, 0.239421, -0.102690, 0.054886, 0.544053, -0.533878, 0.262166, 0.306579, 0.346182, -0.009297, 0.342316, 0.014906, -0.017870, 0.371353, 0.656226, 0.662547, -0.083914, 0.666548, 0.833449, -0.644330, -0.173657, 0.369802, -0.344355, -0.113937, 0.174679, 0.238323, -0.350492, -0.286292, -0.380333, 0.483620, 0.558421, -0.804307, -0.402456, -0.385998, -0.226051, -0.204599, -0.242554, -0.485960, 0.883731, 0.612659, 0.244489, -0.623878, 0.069434, 0.366226, 0.245939, 0.051093, 0.069193, 0.295721, 0.022368, 0.031983, 0.947630, 0.128909, -0.006935, 0.415747, 0.150445, -0.115798, -0.417056, 0.150951, 0.576843, 0.250953, 0.381715, -0.164144, -0.549333, -0.048638, -0.246451, 0.100660, -0.184893, -0.554584, 0.064103, -0.094760, -0.413449, 0.398848, 0.174476, 0.691404, -0.327266, 0.497824, -0.779955, 0.564969, 0.181615, 0.006067, 0.663051, 0.672502, 0.443671, -0.522122, -0.192962, -0.246373, 0.078865, 0.436740, -0.442709, -0.177112, 0.081240, 0.569399, 0.315701, -0.176657, 0.795451, -0.544240, 0.195475, -0.115141, 0.103323, 0.441477, -0.268328, 0.109625, 0.420010, 0.091359, -0.365572, 0.417441, 0.153674, 0.113229, -1.003361, 0.961819, -0.149719, 0.290452, -0.667466, -0.204529, -0.207303, -0.680836, -0.350594, 0.307420, -0.267660, -0.135537, -0.033784, 0.071570, 0.100279, 0.554052, -0.892593, 0.119253, -0.219206, 0.178774, -0.034006, -0.303142, 0.430154, 0.450186, 0.094058, 0.637483, -0.452983, 0.239416, -0.145570, -0.073772, -0.410090, 0.982216, 0.230093, -0.654527, 0.036442, -0.442902, 0.169188, 0.714020, 0.015164, -0.021774, 0.259016, 0.043976, -0.798174, 0.439109, -0.420799, -0.690707, -0.560278, 0.234787, 0.024533, 0.119139, -0.178707, -0.267630, -0.344260, -0.530023, -0.664510, -0.140998, -0.261034, 0.499464, -0.039320, -0.146810, 0.221334, -0.046401, 0.517362, -0.364621, -0.656348, -0.474890, 0.103707, 0.316363, 0.585013, 0.429331, -0.064589, -0.331008, -0.081005, 0.599737, -0.181785, 0.531287, 0.727607, -0.029276, -0.594727, -0.131962, 0.269472, 0.025180, -0.343238, 0.185550, 0.006024, 0.065343, 0.755684, -0.277722, -0.192179, 0.514088, -0.031052, 0.012152, 0.407779, -0.903669, 0.929462, -0.340307, -0.625009, 0.434099, 0.231211, 0.182876, 0.217085, -0.767007, 0.152248, 0.553391, -0.546237, -0.266471, 0.272277, 0.145186, -0.045039, -0.281074, 0.312350, -0.212669, -0.510620, -0.035509, -0.070812, -0.018571, 0.410552, 0.238895, 0.444587, 0.594555, 0.064931, 0.476855, 0.003639, 0.115341, 0.935505, -0.367873, -0.554293, 0.146274, -0.221032, 0.581810, 0.047122, -0.177889, 0.898557, -0.762400, -0.073395, 0.271079, -0.127296, 0.233609, 0.168045, 0.656682, 0.261278, 0.397115, -0.320137, 0.514137, -0.591892, -0.008763, 0.536745, -0.014719, -0.213645, -0.411795, -0.220243, -0.672598, -0.599054, -0.763579, -0.524436, -0.813640, 0.011033, 0.212025, 0.148291, -0.626176, -0.069750, -0.171701, -0.817077, -0.114147, 0.211003, 0.563091, 0.310395, -0.241403, 0.323890, -0.311911, 0.441016, 0.584722, 0.662492, -0.193763, 0.340123, -0.057288, 0.027135, -0.865835, 0.357416, -0.015123, 0.695679, 0.443048, -0.625848, -0.262039, -0.802975, 0.568311, 0.236630, -0.078298, -0.120730, -0.232329, -0.089466, 0.534872, 0.409566, 0.157179, -0.394278, 0.297400, -0.275488, 0.360424, -0.113792, -0.119027, -0.521386, -0.344513, -0.555189, 0.626303, 0.428803, -0.382231, -0.027628, -0.691180, -0.174679, 0.160071, -0.359280, -0.214528, -0.736498, 0.491998, -0.788422, 0.247867, 0.702307, -0.673678, 0.553842, -0.469020, 0.256448, -0.721860, 0.413949, -0.292228, 0.089113, -0.352135, -0.620522, 0.062008, 0.524228, -0.247561, 0.848102, -0.631628, -0.039398, -0.319977, -0.332626, -0.519758, 0.397887, 0.256788, 0.388637, 0.010239, -0.106948, -0.708289, 0.105755, -0.089515, -0.143755, 0.474630, -0.227527, -0.751929, -0.499356, 0.290899, 0.105513, 0.154557, -0.368391, 0.339119, -0.585388, -0.461860, 0.039032, -0.362144, 0.183646, -0.192081, -0.730768, -0.218386, 0.024218, -0.193802, -0.130314, -0.222683, -0.054343, 0.561919, 0.381762, -0.377955, 0.274328, 0.177622, 0.015332, -0.577624, 0.410273, 0.246850, 0.431910, -0.264608, -0.002202, 0.702122, -0.109551, -0.158490, 0.235170, 0.338485, 0.027571, 0.018265, -0.099721, 0.012817, 0.195331, -0.494953, -0.899140, -0.570846, 0.422356, 0.404342, 0.320654, 0.403007, 0.758624, 0.639342, -0.543615, 0.827053, -0.408518, -0.328049, 0.877398, -0.187142, 0.105497, -0.488527, 0.243302, 0.036035, 0.389321, 0.195329, 0.540338, -0.073418, -0.170680, 0.300571, -0.479514, -0.242746, -0.000370, -0.362398, 0.124369, -0.028257, 0.729869, 0.430554, -0.589020, -0.341410, -0.063139, -0.471420, -0.562277, -0.182333, -0.015454, 0.568528, 0.266268, -0.337669, -0.201918, 0.176914, -0.300226, 0.173295, -0.376957, -0.569592, 0.114821, -0.119075, -0.032181, -0.437974, -0.164952, -0.303806, 0.498003, 0.338784, 0.630354, 0.050241, 0.287462, 0.377249, 0.402719, 0.455958, -0.806631, 0.079507, 0.004794, 0.368532, -0.639473, 0.389913, 0.297967, 0.025524, -0.605385, -0.442554, 0.402012, 0.459753, -0.125120, 0.720842, 0.419488, -0.696670, 0.093856, -0.077240, 0.345063, -0.924691, 0.231916, -0.067190, -0.422814, 0.323415, -0.651496, 0.012665, -0.504630, -0.547406, -0.641591, 0.653612, -0.652301, 0.396290, -0.612528, -0.441342, -0.375388, 0.449095, 0.138300, 0.382847, 0.333359, 0.731082, -0.427508, -0.563130, 0.262270, -0.516031, 0.106627, 0.436082, -0.856277, -0.066528, 0.157022, 0.246680, 0.164823, -0.354526, 0.079625, -0.945453, -0.275439, 0.554575, 0.399738, -0.517760, 0.467495, 0.044826, 0.049938, -0.275029, 0.699379, -0.519173, 0.660929, 0.641288, -0.045601, -0.677945, 0.133777, -0.200626, 0.354089, -0.190968, 0.180032, 0.638515, -0.126784, 0.539859, -0.134671, -0.098819, 0.146229, -0.489946, 0.025082, 0.104292, -0.130644, -0.010829, -0.523026, -0.750743, -0.861461, 0.581104, 0.349293, -0.032666, -0.097760, 0.144003, 0.776422, -0.663624, 0.427980, -0.271557, -0.002321, 0.435494, -0.735713, -0.126743, 0.213796, -0.428576, 0.180492, -0.327081, -0.627031, -0.246955, -0.845909, -0.954131, -0.054325, -0.145320, 0.223919, -0.169977, 0.422516, 0.091902, -0.301037, 0.430790, 0.090093, -0.732267, 0.152649, -0.199182, -0.412786, 0.802420, -0.539944, -0.330560, -0.778235, -0.217181, -0.888119, -0.328463, -0.110594, 0.223013, -0.266647, -0.503242, 0.647356, 0.094173, -0.295256, -0.674496, -0.540607, 0.032509, -0.025828, -0.678851, 0.225011, -0.351061, -0.277157, -0.129583, 0.088367, 0.197697, -0.259597, -0.360630, -0.547499, 0.191480, -0.365266, 0.450218, 0.644682, 0.009184, -0.819465, -0.187172, -0.560796, -0.253649, -0.215928, -0.225138, -0.285116, 0.692718, 0.658892, -0.160914, 0.072018, 0.271996, 0.546029, -0.197577, 0.200465, -0.189965, 0.144791, -0.206298, 0.091076, -0.252058, 0.160473, -0.252164, 0.491092, 0.324109, -0.224965, -0.736826, -0.807933, -0.447636, -0.746188, -0.825092, -0.154635, -0.628322, -0.103328, 0.172386, 0.338792, 0.165661, -0.802660, -0.477473, -0.196082, -0.320367, 0.147032, -0.411645, 0.606656, 0.044993, 0.302362, 0.297566, -0.477949, 0.776134, 0.117004, 0.023970, -0.745155, 0.505541, -0.145090, 0.010296, -0.668562, -0.274303, 0.539400, -0.850964, 0.172531, -0.297428, -0.628962, 0.627685, -0.356286, 0.314593, -0.705938, 0.182897, 0.538286, 0.051785, -0.259448, 0.095865, -0.303243, 0.516331, 0.080692, -0.590626, -0.134550, -0.261216, 0.091087, 0.169931, -0.286402, 0.487018, -0.200770, 0.608276, 0.408097, -0.212403, 0.678786, -0.764301, -0.305194, -0.364160, 0.459998, 0.054010, 0.153046, 0.577125, 0.147095, 0.005422, -0.785415, -0.112523, 0.222186, 0.408367, 0.138521, -0.188141, 0.134297, -0.771032, -0.150255, -0.398898, -0.037568, 0.644812, 0.480918, -0.601329, -0.009321, 0.489541, -0.020645, 0.236978, -0.080925, -0.149835, -0.098099, -0.050701, 0.769012, 0.838403, 0.130956, -0.018416, 0.136005, 0.244009, -0.108070, 0.284408, 0.108098, 0.103934, -0.810381, 0.320077, 0.003225, 0.228463, -0.095860, -0.079629, -0.599052, 0.355565, 0.270328, -0.334125, -0.010547, 0.038135, -0.417172, -0.203347, 0.118528, 0.836359, 0.222826, -0.559854, 0.359326, 0.148660, -0.110586, -0.003548, -0.118010, -0.136776, 0.684873, 0.538040, -0.555415, -0.418850, -0.089846, -0.243633, 0.256678, -0.178677, -0.223631, 0.537224, -0.590313, -0.017558, -0.325680, 0.742284, -0.055226, 0.087435, 0.069969, 0.039068, -0.457781, 0.015477, -0.034844, -0.135648, -0.249139, -0.781168, -0.288158, -0.653064, 0.020006, -0.583578, 0.053025, 0.109360, 0.572532, 0.656863, 0.688745, 0.350965, -0.451975, -0.507018, -0.363655, -0.134499, -0.239982, -0.137221, -0.415718, 0.747330, 0.295241, 0.082040, -0.742312, 0.578861, -0.509550, -0.213109, 0.551960, -0.716820, 0.197948, 0.564696, 0.136008, 0.173454, 0.213469, 0.646090, -0.043271, -0.742609, -0.673864, -0.246837, -0.100885, -0.270248, 0.090312, 0.547368, -0.456126, 0.747301, -0.209161, -0.400479, -0.221825, -0.186538, -0.379677, -0.218819, -0.354933, -0.298142, -0.204925, -0.315448, 0.449247, 0.154441, 0.416684, -0.641730, -0.243170, 0.550728, 0.632376, 0.341094, -0.093840, 0.350785, 0.590588, -1.051290, 0.540751, 0.029633, 0.349948, 0.072520, 0.429030, 0.761597, 0.117946, 0.459847, -0.362646, 0.566235, 0.383809, -0.293145, -0.063162, -0.025737, 0.598011, -0.363707, -0.209586, -0.255692, 0.470353, 0.087533, -0.688445, -0.390753, -0.831417, 0.269307, 0.392351, 0.186184, 0.623184, -0.014665, -0.613491, 0.130205, -0.321281, 0.200573, -0.809246, -0.349785, 0.808531, 0.474760, -0.309883, 0.365602, 0.163423, 0.723363, 0.330115, -0.040927, 0.044550, 0.462143, 0.475944, -0.858122, 0.042809, 0.063901, -0.330306, -0.021491, 0.729393, 0.025802, 0.396706, 0.559765, -0.527964, -0.031507, 0.603562, 0.028618, -0.858630, 0.394051, 0.558581, 0.525597, -0.389870, 0.355288, -0.595651, 0.342974, -0.048521, 0.151026, -0.450116, 0.480637, -0.466133, 0.304011, 0.376059, -0.880817, -0.193016, -0.195596, -0.035377, 0.526301, -0.047469, -0.170525, 0.270975, -0.510956, -0.413910, -0.342704, -0.597174, 0.140387, 0.597286, 0.032725, -0.163905, 0.508642, -0.289643, 0.045684, 0.649381, 0.229229, 0.482020, -0.069078, 0.244353, 0.004428, 0.092975, -0.008956, -0.223821, 0.408074, 0.642688, 0.348444, 0.575002, 0.143426, -0.831152, -0.046430, 0.719556, 0.363784, 0.260682, -0.027905, -0.263263, -0.585116, -0.358566, 0.375778, -0.376311, -0.226819, 0.165189, -0.280373, -0.038029, -0.897757, 0.063283, -0.014632, 0.313430, 0.023663, -0.331583, 0.148919, -0.034063, 0.351752, 0.040851, 0.041872, -0.466655, -0.109052, -0.096117, -0.433418, 0.470671, 0.051319, -0.189776, -0.654801, 0.452141, 0.696306, -0.713980, 0.634980, 0.465768, -0.101721, -0.196699, 0.184743, -0.217464, 0.073220, -0.344663, -0.343031, 0.367962, -0.296232, -0.224540, 0.297577, -0.628187, 0.371733, -0.090132, 0.030950, 0.115714, -0.098535, -0.114656, -0.754216, 0.156904, 0.415757, 0.019968, 0.022778, -0.182301, -0.407663, 0.789216, -0.114684, 0.015491, -0.026613, 0.395160, -0.032073, -0.554119, 0.349107, 0.627633, 0.087501, -0.635197, 0.143392, -0.431583, 0.194877, -0.348909, 0.189366, 0.262314, -0.105397, 0.187689, 0.269720, 0.808140, 0.755573, 0.172258, -0.003165, 0.599440, 0.864385, -0.713219, 0.478468, 0.021506, 0.026935, -0.335661, -0.763957, 0.413674, 0.202916, 0.434466, 0.133429, -0.193646, 0.514498, -0.047559, -0.262494, -0.367176, 0.639523, -0.343028, -0.257215, -0.206340, 0.325073, -0.022023, -0.589368, -0.259316, 0.041020, 0.146572, -0.561635, 0.072868, 0.881050, -0.559214, 0.641643, -0.716060, 0.051311, 0.413465, -0.393758, -0.377576, 0.645459, 0.473369, 0.069343, 0.722159, 0.422624, 0.256779, -0.192524, -0.142815, 0.363338, 0.339393, -0.518929, -0.678598, -0.427837, 0.385141, -0.053308, 0.082827, 0.597438, -0.321331, -0.153792, 0.770990, 0.304289, 0.245061, 0.378447, -0.156329, 0.492522, -0.213661, -0.153930, -0.444850, -0.060088, -0.351235, -0.069082, 0.494042, 0.392055, 0.189524, 0.593286, -0.352615, 0.049275, 0.090099, 0.035076, 0.198468, -0.805882, 0.578214, 0.154123, -0.438886, 0.117705, 0.019829, 0.000695, -0.381916, -0.257696, -0.307463, -0.198037, 0.297629, -0.710371, 0.304813, 0.324309, 0.943901, -0.469075, -0.333951, -0.350995, -0.201413, 0.432595, -0.203960, -0.638735, -0.113098, -0.753963, -0.561532, -0.038166, -0.046319, 0.162310, -0.315467, 0.837350, 0.081567, 0.108974, -0.023247, 0.496020, -0.276375, -0.080742, -0.225812, 0.237865, 0.430048, 0.158667, -0.536829, -0.269627, -0.539841, -0.814500, 0.057552, -0.344819, -0.009123, -0.041752, -0.400383, 0.380260, -0.227615, -0.544851, 0.100543, 0.516836, 0.354677, -0.001782, -0.203556, -0.501026, 0.147751, 0.509294, 0.919563, 0.381550, -0.179280, -0.107422, -0.239338, -0.208788, -0.500142, -0.085531, -0.154605, 0.150526, 0.097704, 0.141662, -0.169106, 0.050979, 0.156458, 0.138969, -0.261535, 0.045595, -0.171530, 0.067359, 0.124780, -0.073279, 0.014153, 0.250859, -0.615993, 0.180301, 0.488869, 0.375401, -0.087335, 0.198192, 0.126028, 0.246607, -0.053956, -0.493425, 0.260399, -0.728070, 0.352593, -0.042971, 0.203837, -0.694829, -0.454774, 0.187353, 0.003162, -0.662964, 0.095075, -0.065765, 0.045281, 0.153999, -0.482998, -0.254356, 0.260545, 0.075702, 0.384689, -0.076510, 0.315802, 0.305769, -0.176608, -0.010856, 0.163839, 0.558344, 0.111123, -0.415920, -0.240666, -0.816908, 0.390840, 0.057462, 0.088805, 0.144018, 0.270967, 0.231780, 0.315367, 0.545284, 0.100975, -0.134354, 0.066025, 0.510541, 0.008406, -0.622886, -0.174111, 0.076470, -0.418756, 0.805887, 0.278433, 0.154655, -0.122609, 0.135738, -0.053119, 0.333742, -0.665055, 0.250349, -0.381926, 0.572238, 0.809209, -0.683089, -0.513979, -0.249432, 0.393375, 0.607155, 0.365049, 0.158302, 0.454838, 0.044109, -0.090833, -0.156550, -0.254975, -0.066374, 0.028960, 0.213130, 0.246282, 0.564496, -0.413681, 0.319006, -0.507037, -0.060594, 0.084471, 0.293086, -0.031595, 0.140848, 0.696092, 0.000021, 0.337132, -0.502109, -0.304652, 0.933243, -0.617912, -0.069398, 0.421078, 0.163824, 0.161378, -0.183622, -0.127596, -0.206226, 0.409163, -0.026610, -0.295542, 0.134276, -0.168462, -0.159703, 0.465024, 0.729859, -0.001055, -0.196102, -0.310857, 0.301268, 0.063650, 0.209513, 0.082712, 0.192423, -0.088000, 0.466476, -0.127672, -0.136998, 0.644584, -0.446575, 0.018846, 0.143899, 0.062324, -0.615984, 0.142398, -0.089235, 0.112343, 0.419652, 0.082275, -0.175614, 0.622810, 0.426897, 0.327960, 0.428907, -0.356679, -0.655850, 0.092061, -0.975140, -0.267603, -0.149441, 0.482286, -0.010561, 0.720860, -0.181499, 0.024172, 0.578572, 0.390673, -0.000801, 0.370421, 0.601926, -0.176459, 0.254219, -0.183665, -0.330537, -0.771160, -0.481188, 0.127180, 0.292434, -0.159041, -0.013203, -0.706106, 0.207255, -0.445463, 0.502136, 0.498725, -0.789179, -0.413368, -0.837587, -0.042077, -0.197374, 0.577814, 0.079751, -0.122226, 0.718238, 0.016895, -0.422180, -0.116673, 0.059641, 0.484689, -0.380880, 0.102114, 0.732904, -0.363059, -0.002975, -0.147348, 0.057523, 0.123195, -0.150468, 0.737007, 0.589133, 0.745122, -0.061385, -0.400909, -0.249854, -0.635756, 0.160737, -0.637201, 0.807690, 0.355977, 0.101758, -0.158878, 0.401268, -0.066183, -0.084594, 0.711240, 0.469959, 0.337046, 0.710001, 0.321015, -0.044212, -0.858379, 0.582632, -0.111741, -0.150414, -0.039597, -0.493980, 0.123295, 0.466822, 0.076191, 0.672288, 0.081776, -0.533341, 0.274912, 0.294114, -0.521133, 0.197487, 0.392944, -0.643412, 0.120793, -0.658241, 0.118044, 0.082238, -0.139406, 0.416052, -0.202184, -0.369581, -0.851605, 0.285542, -0.678174, 0.024357, -0.313723, -0.389981, -0.025926, 0.277721, 0.094138, 0.292458, -0.256094, -0.384463, -0.380572, -0.545655, 0.247620, 0.334601, 0.373916, -0.135236, 0.254410, -0.452891, 0.072874, 0.031144, 0.159547, 0.049835, -0.708533, -0.447059, 0.511290, 0.657892, 0.566481, 0.685525, -0.416771, 0.190336, -0.110236, -0.407912, -0.080028, 0.166209, 0.296833, -0.118791, -0.067106, 0.577472, 0.487839, -0.724245, -0.473477, 0.527467, -0.619989, -0.246500, -0.321750, -0.053399, 0.074791, -0.248472, -0.292092, 0.245957, 0.435169, 0.370905, 0.306035, -0.251160, 0.231918, -0.011766, 0.365182, -0.185484, -0.190927, -0.310747, -0.200601, 0.183382, 0.368709, -0.001135, 0.270359, 0.173424, 0.199782, 0.199286, 0.428242, -0.628563, -0.637486, -0.411237, 0.071014, 0.525865, 0.125821, 0.632555, 0.056607, -0.293792, 0.087699, 0.528024, -0.308163, 0.094572, 0.160077, -0.505110, 0.397828, 0.396090, -0.524874, 0.312132, -0.556790, 0.248546, 0.229713, -0.060383, 0.648873, -0.531440, 0.233671, -0.260219, -0.988919, -0.323135, 0.579105, -0.475481, -0.052177, -0.137729, 0.364810, 0.388033, 0.538595, -0.240969, -0.088218, -0.244401, -0.374329, -0.287827, 0.351822, 0.151425, -0.625624, -0.059350, -0.057642, -0.018099, 0.337890, 0.365286, -0.026244, 0.351556, 0.333068, -0.589361, -0.172649, -0.075458, -0.685427, -0.677976, 0.002857, -0.000726, -0.677418, 0.440911, -0.600388, -0.696048, -0.765738, -0.610711, 0.334799, -0.213179, -0.007553, 0.064256, 0.261929, -0.636986, -0.371176, 0.199328, 0.236463, 0.189350, 0.331992, -0.003549, 0.073719, -0.503784, -0.103613, 0.478934, 0.767948, 0.016720, 0.432744, -0.263525, 0.304714, -0.644067, -0.152729, -0.376145, -0.025880, 0.748063, 0.436756, 0.003214, 0.059904, -0.219405, 0.511877, 0.176112, -0.382344, 0.127202, -0.606918, -0.128240, 0.122932, 0.559899, -0.012254, 0.129095, 0.010041, -0.765247, -0.415238, 0.014709, -0.070013, 0.514629, 0.150886, 0.830051, -0.126323, -0.064253, -0.043802, 0.008910, -0.778334, -0.036076, -0.167736, 0.218026, -0.013217, 0.367473, 0.872365, 0.224894, 0.196386, 0.257710, -0.672205, 0.233591, 0.169922, 0.625996, 0.118749, 0.145191, 0.224242, 0.589328, -0.789028, -0.136168, -0.697156, 0.691910, 0.498665, -0.103103, 0.543074, -0.694355, 0.159274, -0.370874, 0.498672, 0.355111, 0.084954, 0.743669, 0.570119, -0.555308, 0.051669, 0.533342, -0.177881, -0.382762, -0.237214, -0.137885, 0.001799, 0.410272, 0.536233, -0.178079, -0.318213, 0.650689, -0.344541, 0.292330, 0.300703, 0.804016, 0.418596, -0.946246, 0.295819, -0.075703, 0.770568, -0.008366, -0.143622, 0.005337, -0.794612, -0.574659, 0.883012, 0.535450, 0.327804, -0.134809, 0.664464, 0.209536, -0.278593, 0.174636, -0.276095, -0.912548, -0.178606, 0.294493, -0.636181, 0.213052, -0.086257, -0.528059, 0.613733, -0.568271, -0.001370, -0.198859, -0.214431, -0.308364, 0.229040, -0.367542, 0.195399, -0.422398, -0.132686, -0.135492, 0.201008, -0.158282, -0.281379, -0.052278, 0.606741, 0.394755, 0.519165, 0.435740, 0.454109, -0.108140, 0.274446, -0.411453, -0.495560, 0.539079, 0.100592, -0.338831, 0.618268, 0.348873, -0.836297, 0.543445, -0.216685, 0.480422, 0.192940, -0.222635, 0.344566, 0.085788, 0.621022, 0.210784, -0.042056, -0.461826, 0.140467, -0.562042, -0.926238, -0.076205, 0.332067, 0.150980, -0.678345, -0.514865, -0.290065, 0.184068, -0.685351, -0.329599, -0.887460, 0.052568, -0.462135, -0.781545, 0.101899, 0.455548, -0.476469, 0.386666, -0.347530, -0.077347, 0.148939, -0.523932, -0.210148, 0.746857, -0.168566, -0.064900, 0.176951, -0.075745, 0.656801, 0.295791, 0.543110, -0.373753, 0.878869, 0.468938, 0.390164, -0.854251, 0.099751, 0.288263, -0.110091, 0.135738, -0.141569, -0.251364, -0.224048, -0.395790, 0.785273, 0.659884, 0.122899, 0.334467, -0.040690, -0.164440, 0.057438, 0.010110, 0.708401, -0.078191, 0.243347, 0.111254, -0.852384, -0.043265, -0.060719, -0.090020, 0.504949, 0.042319, 0.009253, -0.422703, -0.094644, 0.417806, 0.009092, 0.160856, 0.398087, -0.119950, -0.084266, -0.178991, -0.289817, -0.730429, -0.069148, -0.630543, -0.571568, -0.031893, -0.124378, -0.428518, 0.678941, -0.005630, 0.136523, 0.178993, 0.073099, 0.226170, -0.646027, -0.741011, 0.346574, -0.162092, -0.323129, -0.365495, -0.117177, -0.190424, 0.388629, -0.262478, 0.176955, 0.717887, 0.645394, -0.330644, -0.734544, -0.378675, 0.443936, -0.255717, -0.118785, -0.677813, -0.064284, 0.475769, -0.224114, 0.454110, -0.662929, 0.061550, 0.763789, -0.370364, -0.063070, 0.793662, 0.032774, -0.229448, -0.620362, -0.423519, 0.272224, 0.303082, 0.033256, 0.060751, 0.763123, 0.829233, 0.370633, -0.261032, 0.168747, 0.139769, 0.354189, 0.296439, -0.083800, -0.151341, -0.371184, -0.688648, -0.501352, -0.171387, -0.698225, 0.312100, 0.170278, 0.128162, 0.299125, -0.534666, 0.776154, 0.179046, -0.116904, 0.460818, -0.450100, 0.195595, 0.838318, -0.201217, -0.006349, 0.641774, 0.256394, 0.021679, 0.097259, 0.639096, -0.658324, 0.224001, 0.089473, -0.520845, -0.444142, 0.769388, -0.107705, -0.150306, -0.449496, -0.013955, 0.825117, 0.795617, 0.215304, -0.584735, -0.198425, 0.479889, -0.378713, 0.289969, 0.478747, 0.105915, -0.162251, -0.370511, 0.522272, 0.425934, -0.514264, 0.360544, 0.520687, -0.228823, -0.050964, -0.496302, 0.084349, -0.140475, 0.537819, 0.379560, 0.207723, 0.029102, 0.567153, -0.159711, -0.505534, 0.330720, 0.617656, 0.109110, 0.764412, -0.377844, 0.361607, -0.328916, 0.325578, -0.037813, -0.344007, -0.192575, 0.819622, -0.305307, -0.232870, -0.360256, -0.302756, -0.022807, -0.710011, 0.196713, 0.115475, -0.317845, -0.032903, -0.174625, 0.428893, -0.164737, -0.177620, -0.246231, -0.567879, 0.086268, -0.131813, 0.296346, 0.094341, 0.751128, -0.491911, 0.017010, 0.225192, -0.033143, -0.289840, 0.317412, 0.143039, 0.109696, 0.668001, 0.467815, -0.806950, 0.324305, 0.804341, 0.648386, -0.263317, 0.020469, -0.087295, 0.502781, 0.618438, 0.526706, -0.185266, 0.159338, -0.168838, -0.222422, 0.325130, -0.420692, -0.486416, -0.362899, -0.691889, -0.230519, -0.342528, -0.797161, -0.205080, -0.163876, -0.128774, 0.567977, -0.137624, -0.550260, 0.332506, -0.604467, -0.733886, 0.142585, -0.179807, -0.138742, 0.332688, 0.138457, -0.567242, -0.430746, -0.150396, 0.581545, -0.352355, -0.563292, 0.186545, -0.385197, 0.079823, -0.737342, -0.684545, 0.382241, 0.499963, 0.333424, 0.077668, 0.883422, 0.101379, 0.236943, -0.234906, 0.169259, -0.238767, 0.353792, 0.131485, -0.152240, 0.158328, 0.094910, 0.458813, -0.065633, -0.441954, 0.592340, -0.100583, -0.686134, 0.407323, -0.056063, -0.515149, 0.301464, 0.557375, 0.019122, -0.701082, -0.490214, 0.149468, -0.075902, 0.203010, 0.615170, -0.165630, 0.501774, -0.405116, 0.022447, 0.151462, -0.266359, -0.161102, 0.111523, -0.323511, 0.440513, -0.408863, 0.042516, 0.098464, 0.154010, -0.176819, 0.169287, -0.361246, -0.280026, 0.151530, -0.023187, 0.385672, -0.042462, -0.030493, -0.104234, -0.341925, -0.481876, 0.118931, -0.217953, 0.654674, 0.503760, 0.682586, 0.257879, -0.872686, -0.352900, 0.438469, 0.235363, -0.439774, 0.211375, 0.180438, -0.724617, 0.688172, 0.039588, 0.523333, -0.305369, 0.056311, -0.323070, -0.114936, 0.264959, 0.712899, -0.198810, -0.125438, -0.270321, -0.409768, 0.006817, 0.058254, -0.303819, 0.294649, -0.082651, 0.038031, 0.019414, -0.155158, -0.125428, 0.321555, 0.758724, -0.491981, -0.198826, -0.222288, -0.102640, -0.631100, -0.031349, 0.354918, -0.118770, -0.554213, -0.829979, 0.629470, 0.544877, 0.897036, 0.148129, 0.103911, 0.129618, 0.005577, -0.192245, 0.183623, -0.039889, -0.313662, 0.938506, -0.308657, -0.616947, 0.498250, 0.615600, -0.225356, 0.329031, -0.139882, 0.636562, -0.228784, -0.741949, -0.563005, -0.311624, -0.838684, 0.572520, -0.874042, 0.634226, 0.283479, -0.044997, 0.002517, -0.075405, 0.025946, 0.437886, 0.501035, 0.239433, -0.005855, -0.143143, 0.285952, -0.018734, -0.133726, 0.456677, -0.202135, -0.473736, 0.258070, -0.031142, 0.046932, -0.632385, -0.416038, -0.328519, 0.040735, -0.102733, 0.468429, -0.520968, -0.596325, 0.204356, -0.969820, 0.255778, -0.207576, -0.072053, 0.120171, 0.143570, 0.764361, 0.221398, 0.362220, 0.415722, 0.729430, 0.351297, 0.066791, -0.028746, -0.714118, 0.623179, 0.790465, 0.085308, 0.557932, -0.449586, 0.816031, -0.166413, -0.703456, 0.825304, -0.147178, -0.008683, 0.548957, 0.802092, 0.087998, 0.016174, -0.031283, 0.559686, 0.432380, 0.309035, -0.383126, 0.668903, 0.553209, -0.031411, 0.514226, 0.364608, -0.008883, -0.120520, -0.381658, 0.142128, 0.479038, 0.025580, -0.223855, 0.093017, 0.179145, 0.140300, 0.234484, 0.242376, 0.296782, -0.450727, 1.011490, 0.092845, -0.771237, 0.498436, -0.278228, -0.418372, -0.151785, 0.524710, 0.156126, 0.810666, 0.062571, 0.176581, -0.162275, 0.115292, -0.358146, 0.896119, 0.516979, -0.446908, 0.912923, -0.420042, 0.735731, 0.880913, -0.159493, 0.090607, 0.000440, 0.295742, -0.142819, 0.291204, -0.215436, 0.687942, -0.087562, -0.172170, -0.599691, 0.196446, 0.396497, -0.032080, -0.058670, -0.401288, -0.817131, -0.326474, -0.383978, 0.169179, -0.025954, -0.125453, -0.484573, 0.234096, -0.798226, -0.316672, 0.122756, 0.120298, -0.776419, 0.035567, -0.010813, -0.249567, 0.585287, -0.321528, -0.247779, 0.029029, 0.133978, -0.460266, -0.175146, 0.122092, -0.325882, 0.860405, -0.074391, -0.488000, 0.351447, 0.107955, -0.020949, 0.214633, 0.130476, -0.750122, 0.223956, -0.535277, 0.560413, -0.152942, 0.108213, -0.041815, 0.874652, 0.263223, 0.865330, -0.432161, -0.096477, 0.607835, -0.197466, 0.468810, -0.195885, -0.324926, 0.185808, -0.137045, 0.471298, 0.285397, -0.148939, 0.316146, -0.228802, 1.089709, 0.814002, 0.412096, -0.669442, -0.421232, -0.394664, 0.726749, 0.404121, 0.084888, -0.208275, 0.180444, -0.122015, -0.029891, 0.376143, 0.203279, 0.053538, 0.325086, 0.351990, 0.240686, -0.312258, -1.002644, -0.494469, -0.127247, -0.469233, 0.554716, -0.093190, -0.273089, 0.009330, -0.407070, -0.154492, -0.446550, -0.169875, 0.395490, -0.476416, -0.537610, 0.136763, 0.482037, -0.526836, -0.351378, 0.534026, -0.743052, -0.328055, 0.464168, -0.265534, -0.061858, 0.128200, -0.572343, -0.657568, -0.692702, 0.248856, 0.244362, 0.123379, -0.004212, -0.561463, -0.101371, -0.282269, -0.540012, 0.258645, 0.030709, 0.481472, 0.412616, 0.519943, 0.270229, 0.314245, -0.133832, 0.449409, -0.942290, -0.817775, -0.286551, -0.060719, -0.203435, 0.103044, -0.553023, -0.315509, -0.345201, -0.261834, -0.740411, 0.446537, 0.037389, 0.508148, 0.756801, -0.500841, -0.024929, -0.011861, 0.207987, 0.035948, 0.441979, 0.789991, 0.073719, -0.727264, -0.647899, 0.254905, 0.334016, -0.502256, 0.230900, 0.050257, -0.188666, -0.030633, -0.398758, -0.039703, -0.149216, 0.372666, -0.467468, 0.337515, -0.063741, -0.528982, -0.489014, -0.797136, 0.397937, 0.483352, -0.059671, 0.574328, 0.726996, 0.416961, 0.181383, -0.370373, 0.497406, -0.506352, 0.073223, -0.501577, 0.314512, 0.476325, -0.597596, -0.100731, 0.431753, 0.445895, -0.334311, -0.322648, 0.266359, 0.173127, 0.347740, -0.464469, -0.345959, 0.578617, 0.566589, -0.543252, -0.189354, 0.774244, 0.536497, 0.125817, 0.115678, 0.830477, 0.424695, 0.426467, 0.317403, -0.415485, 0.178961, -0.595511, 0.151585, -0.773391, 0.036900, -0.285134, 0.545424, 0.039978, 0.373526, -0.228159, -0.031078, 0.113360, -0.029889, 0.735531, -0.121930, -0.151693, -0.140275, -0.445354, 0.192439, -0.186209, 0.416004, 0.343674, -0.034800, -0.385722, -0.102577, 0.664682, -0.309013, 0.319142, 0.376812, -0.152302, -0.398920, 0.085778, 0.235199, 0.224370, 0.298905, -0.160105, -0.369433, 0.176094, -0.273738, 0.015803, 0.190845, 0.833208, -0.526771, -0.571922, -0.866888, -0.128968, 0.184567, 0.009819, 0.619978, 0.055063, -0.333533, 0.385588, 0.263975, -0.669305, -0.295469, -0.019218, -0.136765, 0.048307, 0.400915, -0.077011, 0.039316, -0.609850, -0.262407, 0.664890, 0.014619, 0.051784, 0.037723, 0.256394, -0.474924, -0.096707, -0.041803, 0.402959, -0.289533, 0.418695, 0.794158, 0.412427, -0.491910, 0.019369, -0.093115, -0.816637, 0.178122, 0.422069, 0.571444, -0.327739, 0.738110, -0.310561, -0.404054, -0.386659, -0.365173, 0.390856, 0.347239, 0.370656, -0.098241, 0.235400, 0.056599, -0.274206, -0.421333, 0.484195, 0.003268, -0.673796, -0.184740, 0.327411, 0.028952, -0.287824, -0.086234, 0.040521, 0.194399, 0.045729, -0.266820, -0.370761, -0.502150, 0.089425, -0.392790, -0.014802, -0.208307, -0.007466, 0.126535, -0.261819, 0.045880, -0.334926, -0.217914, -0.938720, 0.223775, -0.365853, 0.331350, -0.143013, -0.560556, 0.313401, 0.485117, 0.177282, 0.597686, -0.447316, 0.391686, -0.121350, -0.250398, -0.781816, 0.430687, 0.076101, -0.442449, 0.363969, -0.249607, 0.361203, -0.222225, -0.161244, 0.214558, 0.136275, 0.169907, 0.396927, 0.776485, 0.867485, 0.599982, 0.736213, -0.476639, -0.613760, 0.171896, -0.226071, -0.386063, -0.264033, -0.112161, -0.580366, 0.704314, -0.413433, -0.040554, -0.806329, 0.040859, -0.092829, -0.734312, -0.288309, 0.317081, 0.026524, -0.271982, 0.097346, -0.137598, -0.401098, -0.489635, -0.324666, 0.392261, 0.055105, -0.649869, -0.138959, 0.491963, -0.585314, -0.430318, -0.242027, 0.476480, -0.362335, 0.362079, -0.509006, 0.379316, 0.115245, -0.594967, -0.613745, -0.064953, -0.145075, -0.607230, -0.290509, 0.255259, -0.043958, 0.214451, -0.168953, 0.595174, -0.861295, -0.021568, -0.009418, -0.282615, 0.113191, 0.144564, -0.454964, 0.601665, -0.208945, 0.948183, -0.089500, -0.187994, 0.293663, 0.229796, -0.721004, 0.677616, -0.269745, -0.487109, -0.137026, 0.126785, -0.912099, -0.313709, 0.413191, 0.520854, 0.129943, -0.072509, -0.520805, -0.269725, -0.317543, -0.071679, -0.132346, 0.060638, 0.269492, 0.011139, 0.368609, -0.083733, 0.860078, -0.492486, -0.327779, -0.959002, -0.406130, -0.201941, -0.169049, -0.083753, 0.154547, -0.153053, 0.515800, -0.226851, -0.833913, -0.467120, -0.659324, -0.746071, -0.144910, -0.259553, 0.497988, -0.178493, -0.238924, 0.015755, -0.360022, 0.164191, 0.490774, -0.310038, -0.009637, 0.575992, 0.278367, 0.516421, 0.586253, -0.294241, 0.711899, -0.486806, 0.412105, -0.064418, 0.278068, -0.007748, 0.635051, -0.469444, -0.033296, 0.318823, -0.252781, 0.837363, -1.101914, -0.204559, -0.034298, 0.234570, -0.725399, -0.034493, -0.560154, -0.232863, -0.038086, -0.199760, -0.274209, -0.325839, -0.269240, -0.128549, -0.185747, 0.547919, -0.415550, -0.274073, 0.261049, -0.271655, 0.228844, 0.169897, -0.395973, 0.545807, 0.805210, 0.855487, 0.723847, -0.722186, 0.160732, 0.574110, -0.580137, -0.284698, -0.284672, 0.093035, 0.195556, -0.183716, -0.193319, -0.721271, 0.718327, -0.514590, -0.668997, -0.379806, 0.140127, 0.440072, -0.219699, -0.082103, -0.054709, 0.026027, -0.667747, 0.865310, 0.198449, -0.239019, -0.077411, 0.153790, -0.000747, 0.248416, 0.592621, -0.206432, -0.505630, -0.560288, 0.139898, -0.755377, 0.791540, 0.796500, 0.231927, -0.379312, 0.183727, 0.361905, 0.439488, -0.107915, 0.203614, -0.095248, -0.213478, -0.613929, -0.223724, 0.526296, -0.879285, -0.941358, 0.029146, -0.807167, 0.306600, -0.423197, 0.223077, -0.279868, -0.367907, -0.788092, -0.425510, -0.332613, -0.319474, -0.442448, 0.207530, 0.573187, 0.033852, -0.608044, 0.471802, 0.261686, 0.368140, 0.338233, 0.138829, 0.180950, -0.539517, -0.124614, -0.311313, 0.423398, 0.869044, -0.113900, -0.669744, 0.313205, 0.073156, -0.596372, -0.758594, -0.720098, -0.199713, 0.091897, 0.698953, -0.115519, -0.172653, -0.586270, -0.627699, -0.312130, 0.115403, 0.408056, 0.040933, -0.294717, 0.229913, -0.339362, -0.067512, -0.108463, 0.656718, -0.099775, 0.137864, 0.478173, -0.527912, 0.362214, -0.103922, 0.060527, 0.759688, 0.374085, -0.164982, -0.239916, 0.138546, 0.425390, -0.713531, -0.144648, 0.044931, 0.153873, -0.645835, 0.137784, 0.552404, 0.562357, 0.541138, 0.254256, -0.212621, -0.188043, -0.492088, 0.507088, 0.672116, -0.525065, 0.966515, -0.136489, 0.152341, -0.534784, -0.216324, 0.516826, -0.758596, 0.759030, 0.135712, -0.083207, -0.058614, -0.873056, -0.195611, -0.881047, 0.649302, 0.409535, 0.044486, 0.364989, 0.328952, 0.196412, 0.591978, 0.207874, -0.279515, -0.764845, 0.551726, 0.051236, 0.548497, -0.168715, 0.810030, -0.515006, 0.139529, 0.067654, -0.993638, 0.444077, -0.071185, 0.447841, -0.764894, -0.544232, -0.233315, 0.298359, 0.208448, 0.225367, 0.017567, -0.101706, -0.158461, -0.321070, 0.187067, 0.012501, -0.162000, -0.223960, -0.146453, -0.392569, -0.240797, -0.514824, -0.838219, -0.694071, -0.265066, -0.008078, 0.482114, 0.032876, 0.337250, 0.268473, 0.251303, -0.276721, 0.747278, 0.067405, 0.686668, -0.183177, 0.107386, -0.602434, -0.140655, -0.371976, 0.652609, -0.434092, -0.232054, 0.411016, -0.426323, 0.596473, -0.855052, 0.085810, 0.065935, -0.613574, -0.693134, 0.234756, -0.149403, -0.269083, -0.204111, 0.636744, 0.303877, 0.241659, -0.522309, 0.404344, -0.375626, 0.096617, -0.473255, -0.157074, 0.840309, 0.280335, -0.003150, -0.133756, 0.368876, 0.690681, 0.246010, -0.581524, -0.075261, -0.111764, 0.778187, 0.565957, 0.260879, 0.286933, 0.335560, 0.547968, -0.314771, 0.639162, 0.275925, 0.524698, 0.177053, -0.354364, -0.192134, 0.134216, -0.038456, 0.270703, 0.265979, 0.114112, 0.821137, 0.515096, -0.454736, 0.351249, -0.218990, 0.470074, -0.406307, -0.253900, -0.043990, -0.757602, 0.260857, 0.017008, 0.821785, 0.422273, -0.253490, 0.261909, -0.668166, -0.814886, -0.048896, -0.293239, 0.002289, 0.321834, -0.286013, 0.766409, -0.373768, 0.752848, 0.130520, 0.250759, -0.071365, 0.874974, -0.112878, -0.068916, -0.017931, -0.113672, 0.017570, -0.245627, -0.351951, -0.378210, 0.179010, 0.130986, 0.336423, -0.611259, -0.542704, -0.582585, 0.270981, 0.165977, 0.411422, -0.721454, -0.019425, 0.151899, -0.243013, 0.096295, -0.068907, -0.111621, 0.029557, -0.306564, -0.323958, -0.226342, -0.207975, 0.625209, -0.629795, 0.230743, 0.811263, 0.002754, -0.223378, -0.130978, 0.092948, -0.005450, -0.327990, 0.105785, -0.310338, -0.046961, -0.070281, 0.553155, -0.192146, -0.196719, 0.075261, -0.010716, -0.394177, 0.552220, 0.232941, 0.934069, 0.390016, 0.313896, -0.271534, 0.655398, 0.314855, 0.703966, -0.656487, -0.007056, -0.564579, 0.442272, -0.048723, 0.184781, 0.583455, 0.058987, 0.202407, 0.133637, -0.132135, -0.370924, -0.027029, -0.108975, 0.831554, 0.589828, 0.766170, 0.424590, 0.458452, -0.388637, 0.408632, -0.026480, -0.463346, 0.809232, 0.009725, 0.328352, 0.420173, -0.575707, 0.133212, -0.323022, -0.270000, 0.166656, -0.146698, -0.259018, -0.461196, -0.343960, 0.059544, -0.045450, 0.669876, 0.293771, -0.372115, -0.540044, -0.579224, 0.337484, 0.050404, 0.295198, 0.320275, 0.419058, 0.337455, 0.300547, -0.129892, 0.611423, -0.092074, -0.499643, -0.148150, 0.693582, 0.015998, 0.083485, -0.335856, 0.376452, -0.040007, 0.142700, 0.709933, 0.248077, 0.413750, -0.044441, -0.197582, -0.019455, -0.162849, 0.031777, -0.435515, -0.065440, -0.250975, -0.084992, 0.205678, -0.301918, -0.157318, 0.490127, 0.283403, 0.591980, 0.127663, -0.090838, 0.103622, -0.220229, 0.439738, 0.726645, -0.711843, -0.525559, 0.591966, 0.452828, -0.373337, -0.048489, -0.093205, 0.100034, 0.000295, 0.922033, 0.163440, 0.128644, -0.160618, 0.313052, 0.526920, 0.203020, -0.296714, -0.082864, 0.116682, 0.089802, -0.472954, 0.248854, -0.595230, -0.335716, 0.043604, 0.517470, -0.473777, -0.518867, -0.582319, 0.644175, -0.029013, -0.145639, 0.663248, -0.155052, 0.184098, 0.412297, -0.063339, 0.144876, 0.033683, -0.277135, -0.458479, 0.106868, -0.095714, -0.592705, -0.551962, 0.421932, -0.003797, -0.059773, -0.776994, -0.536929, -0.286082, 0.086990, -0.469156, 0.103435, 0.237221, 0.507235, 0.070256, 0.854583, 0.133059, 0.292387, -0.639424, -0.045933, 0.071820, 0.979921, 0.653842, 0.594148, -0.764813, -0.021662, 0.010905, 0.301282, -0.213984, -0.023107, 0.250359, 0.778621, 0.049435, -0.055076, -0.228672, -0.327725, 0.663431, 0.017072, 0.002519, 0.551566, -0.689679, -0.066407, 0.402932, 0.411295, -0.143407, -0.944972, -0.608129, -0.212609, 0.385962, 0.071212, 0.281145, 0.600999, -0.080351, -0.193824, -0.336857, -0.207964, -0.733695, -0.263122, -0.638624, -0.000497, -0.364588, 0.027312, 0.132873, -0.665814, -0.628205, -0.400063, 0.184147, -0.024011, -0.294920, 0.416155, -0.223612, -0.048111, 0.391199, -0.278846, 0.203864, 0.070077, -0.122989, -0.135429, -0.113644, 0.528601, 0.629379, -0.049874, 0.266927, -0.175081, -0.322290, 0.315880, 0.449168, 0.477089, -0.069056, -0.416878, -0.043805, -0.023630, -0.283111, 0.755206, 0.031385, -0.123496, 0.357613, -0.549664, -0.300572, -0.389337, -0.395088, 0.763689, 0.187427, -0.090286, -0.565872, 0.264411, 0.074458, 0.163212, 0.131710, 0.371534, 0.229642, -0.164992, 0.054280, 0.294784, -0.297015, 0.102893, -0.196594, 0.319348, 0.132932, 0.160314, -0.311970, 0.012319, 0.774863, 0.577230, 0.158302, 0.074847, 0.169952, 0.036598, 0.267727, 0.036344, 0.297032, -0.742659, 0.067367, 0.193169, 0.750264, -0.251061, -0.134980, 0.283294, 0.088993, 0.558837, 0.780406, -0.242251, 0.601074, 0.175364, 0.207486, -0.063087, 0.436459, -0.388660, -0.301086, -0.265834, 0.143524, -0.116452, 0.350207, -0.253416, -0.961142, -0.369186, -0.032304, 0.801305, 0.213581, 0.387201, 0.178086, -0.172889, 0.377414, 0.062878, 0.237979, 0.547652, 0.245960, 0.442027, 0.638935, 0.034012, -0.446693, 0.558812, 0.128925, -0.782355, -0.346337, -0.414670, -0.892098, 0.053259, 0.044829, -0.084792, 0.711538, 0.133794, -0.140776, 0.486548, 0.446629, -0.295500, -0.388449, -0.611115, 0.073720, -0.227179, 0.193935, -0.579734, 0.341456, 0.520194, 0.951435, 0.243375, -0.419663, -0.382469, -0.176430, 0.281614, 0.076726, -0.604327, 0.677472, 0.146936, -0.258067, 0.525262, 0.215203, -0.907163, -0.512785, 0.150839, -0.011501, -0.245558, -0.495319, -0.233793, 0.632689, -0.098178, 0.152869, 0.384317, 0.253516, -0.233714, 0.661072, 0.636296, -0.724664, -0.470945, 0.292097, 0.184170, -0.119370, -0.234244, -0.207261, 0.783304, -0.357970, 0.284997, -0.086675, -0.148269, -0.716474, 0.083672, 0.135386, 0.763014, -0.518528, 0.441497, -0.232815, 0.106333, -0.066353, -0.013117, -0.660731, 0.173846, 0.341300, 0.113930, 0.029866, 0.631798, -0.072592, 0.213707, -0.383787, 0.832408, -0.017652, -0.831305, 0.048312, -0.240929, 0.395108, -0.336110, 0.497895, 0.328886, -0.141039, 0.261040, -0.176839, -0.562419, -0.019447, -0.117985, 0.471656, 0.311413, -0.011927, 0.395842, 0.097670, 0.295740, -0.051334, -0.415563, -0.266382, 0.527632, 0.189570, -0.348286, -0.117360, -0.134778, 0.421296, -0.469077, 0.747632, -0.549356, -0.422056, -0.076873, -0.132308, 0.101401, -0.240982, -0.758701, -0.471131, 0.115616, 0.375206, -0.159750, -0.303865, 0.273379, -0.105385, 0.223674, -0.171661, -0.605346, -0.086655, -0.057025, 0.195043, -0.007935, 0.296042, 0.182423, -0.591696, -0.716278, 0.150905, -0.648607, -0.562518, 0.519139, -0.114773, 0.216847, 0.589212, 0.051683, -0.028444, -0.287522, -0.222322, 0.657734, 0.259993, 0.605417, -0.435252, 0.032166, 0.087400, 0.189489, 0.655336, 0.155439, 0.013706, -0.376922, 0.056668, 0.089711, -0.281529, 0.106143, -0.445907, -0.269689, -0.307529, -0.548920, 0.323711, -0.073567, -0.063728, -0.145958, -0.106691, 0.210510, 0.326359, -0.535292, -0.376610, -0.709159, 0.384766, -0.033755, 0.349554, -0.183793, -0.029682, 0.288008, -0.032081, -0.427112, -0.619173, -0.383714, -0.559790, -0.835329, -0.393062, 0.137620, -0.731872, -0.473001, -0.917961, -0.247157, -0.824216, -0.515859, 0.005572, 0.494045, -0.141907, -0.190401, -0.366769, -0.420411, 0.258733, -0.129949, -0.549766, 0.175443, 0.602971, -0.520310, -0.707317, 0.179378, -0.092406, -0.315207, -0.540198, -0.068763, 0.353350, -0.358550, 0.259736, 0.015164, 0.086105, -0.512768, 0.165272, 0.289397, -0.679342, 0.535655, 0.292330, 0.150997, -0.444351, 0.193975, 0.033387, 0.321357, -0.095689, 0.500841, 0.304224, -0.312524, 0.558403, -0.008366, -0.237052, -0.446825, -0.617109, -0.178085, -0.004000, -0.200792, -0.162997, -0.530866, 0.137721, 0.452450, -0.160020, 0.194312, -0.438185, -0.318840, -0.003406, -0.051181, -0.785874, -0.046126, 0.710115, -0.289436, 0.205058, -0.051911, -0.392622, 0.513758, 0.098016, -0.009936, -0.407003, 0.180996, -0.224342, 0.090046, -0.027928, -0.719185, 0.817927, -0.273971, -0.266950, -0.140958, -0.876126, -0.320778, -0.156923, -0.188392, -0.422804, 0.377926, -0.505965, -0.545108, -0.231483, -0.024306, 0.834313, -0.190258, -0.637820, -0.370500, 0.173493, 0.051730, -0.670857, 0.031022, 0.139783, -0.491469, -0.061664, -0.113550, -0.475897, -0.437037, -1.024154, 0.268125, -0.862673, 0.681328, -0.324161, -0.472807, 0.008490, 0.133622, 0.441871, -0.160570, 0.270849, 0.332528, -0.816107, 0.454567, -0.188470, 0.138141, -0.369025, -0.125417, 0.463036, 0.289891, -0.003713, 0.001674, -0.490144, 0.541459, 0.491660, -0.211699, -0.286942, 0.033438, 0.586762, 0.608004, 0.242722, 0.264488, 0.070126, -0.120765, 0.683364, 0.852253, 0.085260, -0.242435, 0.019996, -0.193502, 0.573745, -0.472454, 0.690510, 0.155510, -0.121269, 0.529568, 0.378871, 0.394926, -0.158997, 0.105341, -0.549414, 0.090109, -0.237111, 0.060839, -0.066825, 0.445086, 0.462677, 0.622861, -0.519209, 0.226162, 0.457443, -0.263405, 0.516858, 0.529157, -0.543383, 0.728944, -0.499718, 0.394840, 0.680713, 0.183376, 0.482793, 0.148744, -0.138439, 0.102437, 0.675917, -0.098983, 0.262150, 0.249705, -0.106721, 0.101032, 0.534678, 0.355967, 0.786303, -0.526019, -0.558091, 0.206845, 0.520560, 0.333559, -0.156434, -0.510957, 0.364375, 0.524316, -0.390676, -0.498504, -0.134431, -0.326196, 0.234854, 0.133664, 0.014953, -0.472212, -0.404789, 0.649720, 0.426128, -0.457389, 0.073534, 0.065516, -0.184777, 0.088362, 0.053333, 0.193657, -0.362555, 0.159572, 0.341531, 0.627957, 0.906530, 0.586787, 0.192961, 0.007317, 0.238300, -0.112568, 0.569070, -0.270438, -0.447803, 0.814381, 0.385015, -0.509435, -0.144150, -0.120423, -0.050514, 0.553106, -0.347415, 0.340052, -0.619802, -0.529752, -0.110848, -0.096376, 0.297932, 0.839819, -0.561037, -0.553895, 0.636619, -0.163460, 0.597808, -0.325216, 0.210431, -0.605179, 0.383060, -0.284203, 0.051950, 0.366347, 0.545111, 0.384137, -0.107660, -0.287531, -0.139475, 0.137219, 0.080525, -0.028709, -0.334229, 0.211145, -0.116243, -0.255590, -0.674562, 0.016698, -0.342202, 0.298038, -0.343889, 0.063656, -0.091942, -0.122416, -0.085045, 0.263355, -0.026594, 0.667672, -0.099679, 0.530465, -0.523927, 0.047447, 0.752636, 0.166149, -0.532049, -0.386409, 0.150604, 0.684462, -0.553203, -0.186880, 0.569235, -0.620800, 0.320740, -0.802477, -0.060234, 0.007681, -0.016683, 0.201048, 0.122480, 0.166141, -0.193605, 0.700844, -0.528801, 0.005538, -0.051289, 0.267577, 0.867227, 0.047085, -0.339270, -0.617207, -0.052011, -0.003687, -0.571445, -0.309600, -0.461907, 0.130864, -0.345695, 0.302611, 0.222813, 0.242448, -0.245568, -0.115164, 0.126339, -0.061006, 0.198250, -0.058940, -0.148277, 0.461173, -0.049256, 0.357288, -0.679709, 0.891886, 0.172763, -0.131010, -0.732936, 0.675769, 0.005486, -0.367219, 0.030043, 0.611123, 0.483518, 0.305748, -0.111877, 0.180469, 0.705423, 0.893544, -0.563987, -0.589152, -0.150792, 0.940689, 0.155547, 0.296170, -0.178952, 0.165893, 0.232297, -0.258198, 0.099317, -0.696845, -0.070487, 0.229082, 0.506183, 0.180663, -0.508133, 0.587736, -0.232795, -0.452774, -0.100905, 0.233224, -0.609414, -0.514348, -0.910749, -0.377747, -0.432705, -0.368753, 0.082223, -0.092065, -0.131643, -0.294326, 0.004722, -0.103059, 0.857350, -0.073982, 0.283444, -0.591875, 0.568441, 0.336470, -0.532760, 0.061363, -0.285259, -0.199261, 0.002465, 0.383071, 0.204403, 0.121151, -0.202006, 0.011874, 0.525512, -0.474512, 0.389186, -0.755778, 0.312837, 0.435501, -0.118331, 0.019102, 0.436428, -0.350449, 0.023375, -0.227297, -0.090917, 0.536140, 0.041273, 0.508932, -0.338123, 0.460713, -0.497509, 0.660242, -0.042813, 0.020824, 0.625122, 0.659868, 0.129210, 0.367373, -0.009119, 0.284816, 0.348592, -0.296036, 0.400913, 0.167046, -0.460959, -0.027808, -0.311795, -0.067412, 0.431698, 0.346518, -0.080544, 0.028257, -0.502084, -0.030176, -0.461898, 0.196280, 0.835967, 0.217414, -0.007058, 0.013386, -0.242083, 0.258504, -0.773703, -0.262997, -0.518509, 0.084724, 0.401451, 0.481098, 0.666207, -0.676425, 0.834149, 0.599449, 0.083612, 0.075554, -0.198783, -0.351820, 0.055306, -0.791934, -0.430535, -0.046131, -0.375586, 0.409505, -0.480622, 0.359180, 0.128834, 0.373117, -0.183358, 0.786480, -0.519999, -0.196740, -0.231472, -0.494831, 0.413933, -0.296708, 0.933560, 0.030410, -0.217811, -0.519237, -0.309429, 0.953177, -0.326776, -0.319035, 0.175222, 0.099370, -0.482682, 0.076517, -0.320427, 0.125742, -0.665901, 0.009180, 0.506435, -0.392620, -0.413842, -0.130386, 0.100167, 0.046509, -0.133568, -0.050206, 0.349687, -0.374800, -0.062725, 0.228437, 0.166694, -0.437240, -0.067518, 0.519994, 0.583576, 0.858823, 0.347631, -0.228099, 0.272865, 0.082840, -0.279475, -0.101931, -0.406494, 0.884915, 0.104617, -0.676431, 0.178949, 0.646893, 0.574300, -0.449078, 0.317121, 0.741174, -0.062155, 0.264743, 0.195452, 0.204780, 0.125235, -0.233813, -0.494992, -0.238515, -0.513305, -0.266079, 0.088188, 0.643420, -0.335593, -0.161987, 0.350831, -0.176723, 0.954525, 0.211252, -0.501689, -0.077488, -0.570595, -0.370641, 0.094519, -0.453747, -0.691621, 0.019765, -0.315482, 0.020090, 0.637407, -0.726899, 0.439315, 0.245226, -0.384480, -0.551663, -0.272682, -0.279573, -0.156443, 0.038113, 0.626817, -0.569432, -0.032594, -0.458054, 0.077523, 0.061004, -0.256336, -0.012059, -0.153934, 1.079181, 1.412925, 0.872180, 0.067225, -1.180861, 0.250865, 1.099361, -0.347950, -0.690790, 0.140944, -0.926630, -1.547437, 0.513508, 0.383512, -0.240904, -1.306611, 0.102865, 0.943889, -0.772496, -0.433382, -0.065792, -0.063694, -0.131745, -1.350726, -0.109345, 0.279395, -0.431824, -1.321277, -0.956802, -0.323106, -0.301470, -1.082659, 1.137966, -1.188330, 0.908732, 1.433514, 1.455266, 0.672885, -1.769696, -0.853626, -1.737757, -0.191228, -0.517190, 0.276444, 1.120408, 0.633249, 0.901255, 0.018096, -1.301816, 1.272622
