-0.114250, 0.589086, -0.208387, 0.079422, -0.113899, 0.597818, 0.066613, -0.004837, -0.062184, -0.013980, 0.192400, 0.299588, 0.412534, 0.659061, 0.295891, -0.247272, 0.649050, 0.703738, -0.899885, -0.291019, 0.206860, 0.388280, -0.020146, 0.046018, 0.640797, -0.261242, 0.763242, -0.517296, -0.071060, -0.024492, 0.850357, 0.207916, -0.156872, -0.303179, 0.792450, 1.086225, 0.076792, 0.069112, 0.767590, 0.208548, 0.158796, 0.759134, -0.082946, 0.803853, 0.066854, -0.316661, 0.055184, 0.642622, 0.133028, 0.032484, -0.037372, 0.167180, 0.721363, -0.453505, 0.454405, 0.021415, 0.336130, -0.875697, -0.030786, 0.738169, 0.435612, 0.350772, 0.724805, -0.070553, -0.250569, -0.174869, 0.149162, -1.142027, 0.244107, 0.351393, 0.681217, 0.065079, 0.351144, 0.778969, -0.156765, 0.737681, -0.228095, 0.258089, 0.538671, -0.471978, 0.246218, -0.019123, 0.850897, 0.251083, 0.193167, 0.280445, -0.326360, 0.810123, -0.422282, -0.351170, 0.017211, -0.357228, 0.077903, 0.436667, -0.221391, 0.119044, 1.168491, -0.261266, -0.259671, 0.448766, 0.629001, 0.623539, -0.731672, 0.175025, 0.241352, -0.122086, 0.467235, 0.755152, 0.103672, 0.742683, -0.504059, 0.098706, 0.659716, 0.712658, 0.231617, -0.152169, 0.695329, 0.061225, -0.272704, 0.135821, 0.240531, 0.457666, 0.126944, 0.168671, 0.244835, 0.099057, -0.342400, 0.623813, -0.758439, 0.336501, -1.057033, -0.327842, 0.082816, -0.546187, 1.155498, 0.154055, -0.356274, 0.461171, -0.392516, 0.291665, 0.772003, 0.092954, 0.475893, 0.503778, 0.150157, 0.004462, 0.345519, 0.982128, 0.276568, 0.446737, 0.024980, -0.541249, 0.547678, -0.595123, -0.486963, 0.573727, -1.157350, 0.273091, -0.190379, -1.418285, -0.167366, -1.043087, 0.061058, 0.356206, 0.000585, -1.647893, -1.022706, -0.596013, 0.002697, 0.208222, -0.084579, -0.251185, -0.504455, -0.205600, 0.614841, -1.029957, -1.092342, -0.279096, -0.346564, -0.466315, -0.695715, -0.966900, 0.868211, 0.091157, 0.246079, -1.497935, 1.702428, -0.722522, 0.478801, 0.473310, 0.465818, 0.781714, -0.681013, -0.631246, 0.937447, 0.779836, 0.775356, 0.364085, 1.848320, 0.623380, 0.628647, 0.260864, -0.423349, 1.541430, -0.292784, 0.719988, 1.149070, -0.459846, 1.136917, -0.350795, -0.166236, 0.246713, 0.771757, 0.010010, -0.911020, -0.158652, 0.133657, 0.556171, -0.286736, -0.748615, -0.045456, 0.362652, -1.064517, 0.098971, 0.399261, -0.179656, -0.169017, -0.874524, 0.201883, -0.389067, -1.000765, 0.108018, 0.518108, -0.724048, 1.095135, -0.401530, -0.234604, -1.116674, -0.497520, 0.975741, -0.729811, -0.623241, -0.313208, 0.159769, -1.076420, -0.802779, -0.601163, 0.142043, -0.361846, 0.079892, 0.214771, 0.544916, 0.117974, 0.641714, 0.129744, -0.115417, 0.147554, 0.118583, 0.055111, 0.500980, -0.308493, -0.044005, 0.053905, -0.916147, -0.226662, -0.260529, 0.359792, 0.647603, -0.657849, 0.398042, -0.186331, 0.247817, -0.067076, 0.744617, -0.484377, 0.513567, -0.810694, -0.161484, -0.079538, 0.765557, -0.565190, 0.451939, 0.593448, 0.308028, 0.503713, 0.345014, -0.257481, 0.681946, -0.412808, 0.499367, 1.245185, 0.506679, -0.480911, -0.144217, 0.608620, 0.941016, -1.014518, 0.418561, 0.182726, 0.101640, -0.236090, -0.247305, 0.941379, 0.730045, -0.213911, 0.150839, 1.539311, 0.248997, 0.232886, 0.087830, -1.002576, -0.049556, -0.098981, -0.106278, -0.574761, 0.878462, 0.925843, 0.485295, -0.832749, 0.223050, -0.246761, 0.328615, -0.926985, 0.975074, -0.081935, 0.185279, -1.333171, -0.765997, 1.319229, -0.271149, -1.101284, -1.330027, -0.448388, -1.680206, -0.803316, 0.583128, 0.451603, -1.044669, -1.211971, -0.793212, -0.320859, -0.075375, -0.394147, -0.073725, -1.116166, -0.004191, -0.953610, 0.215774, 0.640972, 0.215780, -0.318726, -0.124671, -0.878331, 0.335570, 0.319173, 1.210423, 0.423156, 0.280964, -0.758301, -0.557496, -0.461000, -0.904977, -1.004577, 0.049179, -0.376952, -0.138884, -0.829057, -1.088379, 0.225756, -0.760701, -0.023381, 0.159166, -0.021308, -0.299351, -1.102306, 0.654295, 0.639075, -0.645480, 0.401917, -0.355868, -0.234570, -0.744676, -0.223604, 0.315628, 0.185576, 0.460823, 0.600030, 0.014807, -0.085583, 0.266534, -0.181376, -0.379214, -0.746582, -0.532256, -0.636497, -0.292786, 0.205737, 0.690181, 0.162774, 0.718369, -0.572753, -0.445700, 0.218415, -0.790841, -0.135980, -0.677636, 0.619056, -0.592588, -0.344783, 0.351429, 0.048580, -1.357448, -0.568026, -0.671166, 0.525502, 1.096884, 1.613634, -0.368367, -1.074247, 0.260006, -0.081683, -0.086357, -0.769090, -0.274560, 1.133602, -0.980078, 0.226172, -1.198975, -1.086968, -1.193800, 0.070860, -0.669089, 0.885725, 0.259340, -0.391655, -1.691574, 0.156467, -0.707132, 0.129022, 0.721229, 1.103544, 0.705278, -0.018430, -0.218653, 0.622189, 0.545984, 0.826465, 0.927151, -1.595319, -1.509120, 1.429589, 0.052914, -1.018898, -0.291472, 1.522513, 0.615481, 0.048051, -0.041210, 0.209168, 0.295734, 0.307799, -0.706177, -0.945762, -0.139232, 0.894339, 0.923632, 0.542494, 0.359504, -0.277362, -0.140159, -1.180339, -0.894033, 0.470449, 1.597632, 0.473950, 0.001260, -0.377195, 0.631159, -0.025037, -0.646161, -0.606459, -0.331325, -0.481459, -0.251980, 0.103659, -0.167846, -0.934895, -1.377274, -0.878402, 0.499324, 0.039521, 0.537576, -0.573252, 0.049290, 0.028747, -0.251192, -0.615762, -0.097133, -0.177575, -0.439806, -0.542930, 0.555769, 0.138008, 0.283697, 0.122147, -0.416063, -0.260885, 0.439805, 0.230952, 0.389435, -0.344718, 0.156826, 0.324433, 0.454615, 0.477542, 0.252972, 0.739921, 1.080554, 0.497287, -0.039467, -0.390452, -1.186424, -0.101786, 0.105948, 0.333356, 0.594620, 0.166312, 0.309155, -0.346440, 0.229007, 0.976142, 0.022023, -0.366210, -1.382485, -0.695481, -0.154273, -0.010045, -0.152907, -0.002242, 0.198328, 1.313778, 1.501446, -1.243191, 0.345973, 1.030954, -0.628241, -0.977562, 0.375468, 0.815276, 0.390752, 0.388101, -0.331171, -0.034185, 0.283737, -0.430424, -0.734199, 1.297366, 0.614998, 0.601733, 0.085857, 0.023256, -1.043662, 0.120386, -1.640819, -0.359887, 0.526976, -1.009467, -0.299744, -0.809081, -0.218307, 0.125178, -0.312259, -1.001900, -0.595282, 0.412513, -0.717462, -0.240560, 0.365112, 0.651262, -0.053245, -0.262128, -1.316816, -0.072715, -1.123134, -0.801643, 1.026914, 1.399613, 1.104061, -0.183584, -1.263289, 1.093038, 0.042669, -1.610094, 1.432794, -0.104426, -0.894256, -0.062830, 0.522431, 0.879954, 0.673758, -1.117954, 0.419550, 0.403924, 0.736607, -0.245199, 0.556300, 0.583143, -1.027829, 1.749954, -0.039246, 0.043911, 1.894777, 0.208669, 0.366169, -0.035383, -0.122411, -0.537265, 0.524176, 0.018706, 0.137727, -0.230708, 1.135569, 0.059822, 0.179859, 0.867247, 0.264616, -0.296198, 0.502160, 0.570855, 0.514883, 0.632462, 0.960007, 0.966812, -0.123153, 1.248219, 0.624557, 1.027784, 0.798097, 0.217496, 0.571225, 0.204722, 0.264470, 0.348886, -0.211486, 0.403532, -0.700360, 0.454550, 0.160442, 0.222724, 0.106340, -0.226032, 0.019887, 0.459389, 0.717257, 0.063541, 0.283323, 1.012735, 0.744668, 0.576079, 0.325712, 0.326256, -0.344089, -0.034018, 0.516100, 1.226381, -0.340317, 0.126616, -0.669286, -0.108648, 0.315902, 0.137234, 0.143885, 0.464526, -0.743292, 0.320563, -0.504166, -0.871099, -0.659970, 0.290694, 0.571841, -0.635859, -0.255939, 0.253497, -1.062794, 0.425487, -0.940468, 0.380533, 0.517321, -0.520742, 0.338913, -0.174860, 0.563453, 0.255497, -0.213253, -0.236932, 1.826397, -0.029966, -0.095070, 0.311842, 1.371630, -0.541120, -0.147272, 0.235744, 0.143588, -1.054539, 0.052714, 0.735775, 0.572129, -0.782131, -0.022347, -0.227320, 0.950467, 0.051794, 1.527775, -1.060775, 0.536919, 0.003300, 0.843783, -1.041969, 0.117669, 0.591373, -0.269086, 0.226364, 0.996153, -0.489645, -0.738887, -0.142500, -0.869161, 0.417925, 0.238132, 0.878480, 1.517439, 1.394879, 1.261734, 0.827969, -0.832904, 1.600352, -0.765293, 0.999690, 0.026892, 1.322957, 0.870393, -1.119023, 0.553122, 0.244062, 0.262766, -0.240212, 0.459288, 1.233481, 0.278579, 0.141575, -0.210044, 1.028329, 0.366635, 0.789643, 0.517936, 1.111696, 0.134901, 1.173203, -0.358432, 0.183069, 0.500415, 0.003729, 0.692999, 0.533531, 0.049307, -0.460830, 0.272560, -0.084932, 0.006558, -0.639379, -0.266517, 0.436997, -0.270638, 0.100192, -0.555424, 0.214943, -0.105811, -0.423684, 0.198644, -0.515857, 0.640951, 0.541734, 0.152963, 0.345880, -0.891022, 0.474125, -0.495312, -0.171646, 0.071051, -0.189182, 0.175116, 0.418025, -0.685315, 0.222892, 0.047838, -0.925367, -0.705257, 0.367616, -0.205351, 0.308261, -0.186599, -0.373443, -0.209818, 0.266431, 0.356045, 0.377544, 0.632817, 0.306550, 0.445850, 0.148915, -0.963468, -0.298327, 0.422213, -0.133810, 1.230175, 1.036296, 0.136820, -0.460300, -0.396906, -0.991265, 0.267119, 0.535545, 0.706500, 0.279627, 0.553799, -0.266809, 0.597209, 0.547082, 0.500472, -0.472541, -0.432302, 0.426182, 0.576073, 1.129028, 0.837082, 1.245605, 0.085883, 0.396258, 0.533415, -0.911372, -0.841288, -1.343758, -0.500800, -0.520302, 0.228515, -0.170799, 0.317986, 0.283117, -0.434875, -0.685029, -0.350743, -0.787737, -0.382600, 0.334788, 0.012252, -0.258681, 0.111776, -0.622638, -0.444960, -0.421605, -0.644150, -0.736250, 0.026457, -0.141299, -0.358889, 0.023814, -0.432968, -1.143194, -0.145385, -0.406972, -0.320876, -0.414017, 0.649970, -0.376183, -0.030610, -0.556092, -0.780930, -0.018201, 0.775025, -0.379253, -0.345763, -0.007777, 0.058127, -0.228778, 0.145061, -0.378777, -0.130250, 0.032500, -0.184173, -0.033774, 0.368284, -0.152639, -0.901173, -0.952870, 0.677261, -0.699798, 0.144822, 0.720837, 0.094593, 0.096054, 0.812930, -0.091501, 0.031578, 0.009783, 0.258859, 0.187816, 0.088408, 0.239103, 0.436666, -0.016988, -0.011693, 0.267342, 0.444551, 0.512684, 0.306023, 0.620309, -0.443480, -0.295640, -0.214218, 1.511765, 0.191817, 0.911841, -0.316847, 0.196556, -0.363874, -0.704607, -0.124127, 1.008648, 0.568681, 0.696283, 0.631940, -0.551059, -0.312535, 0.770480, -0.271071, 0.463901, 0.313661, 2.130892, 0.566233, 0.745045, 0.017627, 0.228901, 0.172684, 0.870426, 0.830813, 1.243453, 0.498209, -0.217463, 0.139372, -0.498288, 0.170372, 0.888695, 1.099157, 0.578509, 0.249366, -0.162096, -0.856266, -0.271011, -0.135357, 0.093095, -0.274036, -0.565254, -0.538545, -1.932724, -0.615299, -0.404776, 0.297911, -0.071374, -0.206048, -1.343916, -0.662734, -0.187548, -1.045199, -1.051301, -0.997600, -0.985901, -0.049609, 0.202186, 0.075509, -1.013358, 0.219407, -0.689579, -1.417618, -0.545064, 0.091260, 0.654434, 0.664309, 0.526397, -0.489189, -1.069900, 0.336345, 0.481765, -0.271712, -0.143156, -0.113928, 0.189029, -0.630234, -0.547385, 1.073349, -0.394070, -0.888015, 0.380198, -0.455049, -0.022724, -0.433281, -0.611894, -1.400850, 0.903628, -0.470989, 0.000776, -0.788359, 0.324984, 0.378686, 1.011083, -0.076703, -0.079071, -1.036445, -0.268050, -0.414385, 0.759700, 0.069403, -0.274699, -0.264206, -0.131241, -0.804350, -0.571000, -0.217420, 0.318247, -0.737820, -0.369003, -0.145430, -0.300902, -0.447706, 0.213529, -0.833887, 0.088929, 0.015958, 0.279873, 0.211116, -0.095243, 0.043481, -0.134343, -0.477667, -0.152110, 0.007327, -0.890131, 0.206263, 0.728910, -0.528968, 0.443378, -0.729426, -0.133682, -0.272291, 0.167512, -0.100401, -0.514562, -0.523271, -0.391954, -0.078135, 0.596504, -0.767682, -0.426581, 1.365774, 0.391006, -0.130213, 0.225702, -1.021613, -1.023012, -0.833550, -0.425806, 1.285903, 0.253594, -0.463348, 0.978733, -0.527602, -0.158922, 0.700174, -0.236158, 0.523718, 0.686136, 0.183527, 0.903844, 0.576218, 0.445144, 0.054466, 0.814322, -0.394435, 0.464501, -0.877802, 0.210645, -0.059968, 0.491507, 1.067450, 1.443765, -0.282717, 0.245911, -0.218476, 0.246420, -0.203469, -0.699677, 0.324664, -0.574077, -0.708144, 0.297665, 0.911925, -0.260809, 0.374163, -0.355141, -0.783967, -0.874975, -0.149630, 0.214705, 1.171968, 0.949755, 0.270706, 0.840671, 1.493158, 0.235439, -0.389454, -0.582085, 0.256218, -0.567008, 0.350203, -0.192250, 0.385626, -0.461839, -1.038280, 0.689374, -0.699372, -0.390461, -0.762700, -0.134150, -0.152251, -0.850011, 0.248765, 0.425515, -0.483923, -0.411649, -0.515331, -0.481914, -0.661313, -0.106048, 0.579225, -0.730441, -0.087094, 0.025559, 0.183310, -0.639223, 0.063685, 0.248016, -0.334480, -0.360423, -0.315575, -0.549851, 0.544449, 0.453228, -0.445057, -0.549476, -0.123037, 0.508026, 0.808547, 0.582717, 0.517851, -0.452631, 0.179866, -0.061232, 0.057940, 0.124802, 0.361596, 1.221321, -0.219096, -0.095475, -0.186812, -0.910696, 0.536595, -0.398212, -0.354398, 0.197348, -0.312613, 0.096246, -0.249631, 0.833567, 0.109870, -0.994541, 0.210851, 1.032017, 0.680066, 0.371333, 0.733444, 1.546203, 1.304366, -0.239548, 1.791903, 1.732442, 0.220344, -0.339122, 0.043827, -0.176152, 0.560819, -0.167247, 0.764785, 0.523746, 0.572069, -0.469940, 0.174754, -0.334279, 1.258035, 0.889744, 0.652054, 0.784313, -0.918673, -0.614824, -1.599595, -0.245905, -0.275958, 0.797288, -0.077620, -0.805251, -0.150657, 0.247420, -0.108504, 0.547697, -0.759614, 0.387646, 0.032547, 0.107925, -0.479962, -0.060448, -0.438198, 0.014074, -2.264605, 0.829722, 1.425089, -1.791884, -1.481861, -0.427756, 0.760500, -0.823306, -0.975650, -0.545449, 0.126059, 0.483691, 0.166370, 1.180420, 1.181801, 0.620401, -0.403471, -0.833821, 0.381927, 0.754513, -0.822134, 0.018283, 0.153042, -0.533057, -0.002362, 0.369759, -1.010117, -0.048989, -0.867023, -1.370517, -1.750466, -0.779882, -0.334841, 0.492655, 0.250550, -0.796822, 0.071016, -0.272235, -0.251718, -0.998901, -1.010992, -0.677479, -0.165260, 0.194404, -0.745801, -1.030471, -0.503931, -0.001111, -0.923490, -3.049560, 5.084656, -5.929220, -7.790477, -5.945147, -4.776005, -3.549182, -5.571018, 3.285865, 7.197419
